{"learner":{"attributes":{"scikit_learn":"{\"_estimator_type\": \"regressor\"}"},"feature_names":["p_home","p_draw","p_away","cf6_h","ca6_h","cf6_a","ca6_a","sf6_h","sf6_a","strength_gap"],"feature_types":["float","float","float","float","float","float","float","float","float","float"],"gradient_booster":{"model":{"cats":{"enc":[],"feature_segments":[],"sorted_idx":[]},"gbtree_model_param":{"num_parallel_tree":"1","num_trees":"400"},"iteration_indptr":[0,1,2,3,4,5,6,7,8,9,10,11,12,13,14,15,16,17,18,19,20,21,22,23,24,25,26,27,28,29,30,31,32,33,34,35,36,37,38,39,40,41,42,43,44,45,46,47,48,49,50,51,52,53,54,55,56,57,58,59,60,61,62,63,64,65,66,67,68,69,70,71,72,73,74,75,76,77,78,79,80,81,82,83,84,85,86,87,88,89,90,91,92,93,94,95,96,97,98,99,100,101,102,103,104,105,106,107,108,109,110,111,112,113,114,115,116,117,118,119,120,121,122,123,124,125,126,127,128,129,130,131,132,133,134,135,136,137,138,139,140,141,142,143,144,145,146,147,148,149,150,151,152,153,154,155,156,157,158,159,160,161,162,163,164,165,166,167,168,169,170,171,172,173,174,175,176,177,178,179,180,181,182,183,184,185,186,187,188,189,190,191,192,193,194,195,196,197,198,199,200,201,202,203,204,205,206,207,208,209,210,211,212,213,214,215,216,217,218,219,220,221,222,223,224,225,226,227,228,229,230,231,232,233,234,235,236,237,238,239,240,241,242,243,244,245,246,247,248,249,250,251,252,253,254,255,256,257,258,259,260,261,262,263,264,265,266,267,268,269,270,271,272,273,274,275,276,277,278,279,280,281,282,283,284,285,286,287,288,289,290,291,292,293,294,295,296,297,298,299,300,301,302,303,304,305,306,307,308,309,310,311,312,313,314,315,316,317,318,319,320,321,322,323,324,325,326,327,328,329,330,331,332,333,334,335,336,337,338,339,340,341,342,343,344,345,346,347,348,349,350,351,352,353,354,355,356,357,358,359,360,361,362,363,364,365,366,367,368,369,370,371,372,373,374,375,376,377,378,379,380,381,382,383,384,385,386,387,388,389,390,391,392,393,394,395,396,397,398,399,400],"tree_info":[0,0,0,0,0,0,0,0,0,0,0,0,0,0,0,0,0,0,0,0,0,0,0,0,0,0,0,0,0,0,0,0,0,0,0,0,0,0,0,0,0,0,0,0,0,0,0,0,0,0,0,0,0,0,0,0,0,0,0,0,0,0,0,0,0,0,0,0,0,0,0,0,0,0,0,0,0,0,0,0,0,0,0,0,0,0,0,0,0,0,0,0,0,0,0,0,0,0,0,0,0,0,0,0,0,0,0,0,0,0,0,0,0,0,0,0,0,0,0,0,0,0,0,0,0,0,0,0,0,0,0,0,0,0,0,0,0,0,0,0,0,0,0,0,0,0,0,0,0,0,0,0,0,0,0,0,0,0,0,0,0,0,0,0,0,0,0,0,0,0,0,0,0,0,0,0,0,0,0,0,0,0,0,0,0,0,0,0,0,0,0,0,0,0,0,0,0,0,0,0,0,0,0,0,0,0,0,0,0,0,0,0,0,0,0,0,0,0,0,0,0,0,0,0,0,0,0,0,0,0,0,0,0,0,0,0,0,0,0,0,0,0,0,0,0,0,0,0,0,0,0,0,0,0,0,0,0,0,0,0,0,0,0,0,0,0,0,0,0,0,0,0,0,0,0,0,0,0,0,0,0,0,0,0,0,0,0,0,0,0,0,0,0,0,0,0,0,0,0,0,0,0,0,0,0,0,0,0,0,0,0,0,0,0,0,0,0,0,0,0,0,0,0,0,0,0,0,0,0,0,0,0,0,0,0,0,0,0,0,0,0,0,0,0,0,0,0,0,0,0,0,0,0,0,0,0,0,0,0,0,0,0,0,0,0,0,0,0,0,0,0,0,0,0,0,0,0,0,0,0,0,0,0,0,0,0,0,0,0,0,0,0,0,0,0,0,0,0,0,0],"trees":[{"base_weights":[-2.223065E-3,-6.548077E-3,2.9209597E-2,-1.8737918E-2,1.7823486E-3,2.0838114E-2,8.4136665E-2,-2.4134427E-2,1.3053091E-2,-4.4410806E-3,2.1968456E-2,-1.9692382E-2,2.7190803E-2,7.468934E-2,4.8035428E-1,-1.3342211E-3,2.9216914E-3,2.2483217E-4,7.605435E-3,-1.0416812E-3,1.7337652E-4,7.393944E-4,4.4343974E-3,-5.3239153E-5,-5.8178385E-3,4.4020332E-4,2.4450154E-3,2.301304E-3,8.641855E-3,2.8721435E-2,1.707652E-2],"categories":[],"categories_nodes":[],"categories_segments":[],"categories_sizes":[],"default_left":[0,0,0,0,0,0,0,0,0,0,0,0,0,0,0,0,0,0,0,0,0,0,0,0,0,0,0,0,0,0,0],"id":0,"left_children":[1,3,5,7,9,11,13,15,17,19,21,23,25,27,29,-1,-1,-1,-1,-1,-1,-1,-1,-1,-1,-1,-1,-1,-1,-1,-1],"loss_changes":[1.5078853E1,9.900932E0,6.16539E0,6.7912827E0,7.2766366E0,2.9991984E0,6.567335E0,7.1277466E0,6.834442E0,5.7398725E0,6.5366287E0,2.8428621E0,4.017659E0,4.8642235E0,1.422596E-1,0E0,0E0,0E0,0E0,0E0,0E0,0E0,0E0,0E0,0E0,0E0,0E0,0E0,0E0,0E0,0E0],"parents":[2147483647,0,0,1,1,2,2,3,3,4,4,5,5,6,6,7,7,8,8,9,9,10,10,11,11,12,12,13,13,14,14],"right_children":[2,4,6,8,10,12,14,16,18,20,22,24,26,28,30,-1,-1,-1,-1,-1,-1,-1,-1,-1,-1,-1,-1,-1,-1,-1,-1],"split_conditions":[5.755895E-1,4.6666665E0,6.6E0,6.4E0,5.3333335E0,4E0,1.55E1,7.5E0,4.9799418E-1,4.25E0,6.8333335E0,1.3E1,4.1666665E0,1.75E1,8E0,-1.3342211E-3,2.9216914E-3,2.2483217E-4,7.605435E-3,-1.0416812E-3,1.7337652E-4,7.393944E-4,4.4343974E-3,-5.3239153E-5,-5.8178385E-3,4.4020332E-4,2.4450154E-3,2.301304E-3,8.641855E-3,2.8721435E-2,1.707652E-2],"split_indices":[9,4,6,3,3,3,8,6,2,6,4,7,4,7,3,0,0,0,0,0,0,0,0,0,0,0,0,0,0,0,0],"split_type":[0,0,0,0,0,0,0,0,0,0,0,0,0,0,0,0,0,0,0,0,0,0,0,0,0,0,0,0,0,0,0],"sum_hessian":[1.10912625E5,9.749876E4,1.3413866E4,3.9579668E4,5.791909E4,1.1642224E4,1.7716427E3,3.383643E4,5.7432373E3,4.4271598E4,1.3647489E4,1.5769567E3,1.0065267E4,1.7327056E3,3.8937202E1,3.2824062E4,1.01236725E3,5.412271E3,3.3096622E2,1.4406765E4,2.9864834E4,1.2323625E4,1.3238649E3,1.3238649E3,2.5309181E2,5.4512085E3,4.6140586E3,1.3433335E3,3.89372E2,1.9468601E1,1.9468601E1],"tree_param":{"num_deleted":"0","num_feature":"10","num_nodes":"31","size_leaf_vector":"1"}},{"base_weights":[-4.9553066E-4,3.2824134E-3,-5.9685003E-2,4.5763976E-5,3.4756698E-2,-1.5662357E-1,-5.047078E-2,-8.089766E-3,1.0217065E-2,9.670359E-3,6.602716E-2,-1.8716913E-1,-5.5018023E-2,-7.944757E-2,-8.210544E-3,-7.5221923E-4,1.5851526E-4,4.3116082E-4,4.5767752E-3,2.2801361E-4,8.104835E-3,2.5182723E-3,6.598975E-3,5.4682395E-3,-1.0054662E-2,9.379151E-3,-7.6978914E-3,-3.0188912E-3,-6.2687523E-3,2.4076456E-3,-2.0818154E-3],"categories":[],"categories_nodes":[],"categories_segments":[],"categories_sizes":[],"default_left":[0,0,0,0,0,0,0,0,0,0,0,0,0,0,0,0,0,0,0,0,0,0,0,0,0,0,0,0,0,0,0],"id":1,"left_children":[1,3,5,7,9,11,13,15,17,19,21,23,25,27,29,-1,-1,-1,-1,-1,-1,-1,-1,-1,-1,-1,-1,-1,-1,-1,-1],"loss_changes":[2.5173656E1,1.0780212E1,6.0172977E0,7.9404645E0,7.739361E0,1.7960663E0,7.5555487E0,4.1751432E0,5.5254607E0,4.2649775E0,4.5233135E0,1.8987589E0,3.3732529E0,3.1909447E0,4.7373505E0,0E0,0E0,0E0,0E0,0E0,0E0,0E0,0E0,0E0,0E0,0E0,0E0,0E0,0E0,0E0,0E0],"parents":[2147483647,0,0,1,1,2,2,3,3,4,4,5,5,6,6,7,7,8,8,9,9,10,10,11,11,12,12,13,13,14,14],"right_children":[2,4,6,8,10,12,14,16,18,20,22,24,26,28,30,-1,-1,-1,-1,-1,-1,-1,-1,-1,-1,-1,-1,-1,-1,-1,-1],"split_conditions":[3.02799E-1,6.9998306E-1,3.4E0,5.1666665E0,4E0,4.139553E-1,4.8333335E0,1.32E1,8.8E0,7E0,1.731684E-1,8.6E0,4.228527E-1,3.1681588E-1,3.071922E-1,-7.5221923E-4,1.5851526E-4,4.3116082E-4,4.5767752E-3,2.2801361E-4,8.104835E-3,2.5182723E-3,6.598975E-3,5.4682395E-3,-1.0054662E-2,9.379151E-3,-7.6978914E-3,-3.0188912E-3,-6.2687523E-3,2.4076456E-3,-2.0818154E-3],"split_indices":[1,0,4,4,4,0,5,7,4,5,1,7,0,1,1,0,0,0,0,0,0,0,0,0,0,0,0,0,0,0,0],"split_type":[0,0,0,0,0,0,0,0,0,0,0,0,0,0,0,0,0,0,0,0,0,0,0,0,0,0,0,0,0,0,0],"sum_hessian":[1.12572375E5,1.05819984E5,6.752386E3,9.595453E4,9.865455E3,5.8333997E2,6.1690464E3,5.3312703E4,4.2641832E4,5.4754565E3,4.3899985E3,4.4721112E2,1.3612883E2,3.6586453E3,2.510401E3,3.2956766E4,2.0355938E4,4.182428E4,8.175479E2,5.2998394E3,1.7561708E2,3.5504097E3,8.395889E2,1.9442642E1,4.2776846E2,3.891562E1,9.721321E1,2.5884949E3,1.0701503E3,9.3421704E2,1.576184E3],"tree_param":{"num_deleted":"0","num_feature":"10","num_nodes":"31","size_leaf_vector":"1"}},{"base_weights":[8.2188315E-4,-4.437332E-3,2.5023794E-2,-1.2916745E-2,8.738946E-3,1.70143E-2,7.245735E-2,-2.4909483E-2,-2.6656527E-3,-7.959607E-3,1.6773943E-2,-6.975089E-2,2.1262044E-2,6.679819E-2,4.5261383E-1,-4.363693E-3,-1.1535421E-3,-5.022049E-3,5.912374E-6,-5.160699E-4,7.3054805E-3,4.2301367E-4,1.9529084E-3,-4.5011374E-3,5.748536E-3,-1.2653028E-3,1.5208067E-3,4.4874693E-3,4.9571943E-4,2.7030682E-2,1.6129337E-2],"categories":[],"categories_nodes":[],"categories_segments":[],"categories_sizes":[],"default_left":[0,0,0,0,0,0,0,0,0,0,0,0,0,0,0,0,0,0,0,0,0,0,0,0,0,0,0,0,0,0,0],"id":2,"left_children":[1,3,5,7,9,11,13,15,17,19,21,23,25,27,29,-1,-1,-1,-1,-1,-1,-1,-1,-1,-1,-1,-1,-1,-1,-1,-1],"loss_changes":[1.4296967E1,1.0309626E1,7.6154375E0,6.902114E0,4.848098E0,6.3264055E0,6.170067E0,2.962803E0,8.239996E0,4.2746053E0,4.518702E0,3.0210335E0,6.9748054E0,3.7268066E0,1.3331795E-1,0E0,0E0,0E0,0E0,0E0,0E0,0E0,0E0,0E0,0E0,0E0,0E0,0E0,0E0,0E0,0E0],"parents":[2147483647,0,0,1,1,2,2,3,3,4,4,5,5,6,6,7,7,8,8,9,9,10,10,11,11,12,12,13,13,14,14],"right_children":[2,4,6,8,10,12,14,16,18,20,22,24,26,28,30,-1,-1,-1,-1,-1,-1,-1,-1,-1,-1,-1,-1,-1,-1,-1,-1],"split_conditions":[5.184224E-1,5.3333335E0,6.6E0,4.75E0,4.2E0,3E0,1.6E1,7.5E0,2.2E0,2.0333334E1,5.25E0,6E0,4E0,7.6E0,7.28223E-1,-4.363693E-3,-1.1535421E-3,-5.022049E-3,5.912374E-6,-5.160699E-4,7.3054805E-3,4.2301367E-4,1.9529084E-3,-4.5011374E-3,5.748536E-3,-1.2653028E-3,1.5208067E-3,4.4874693E-3,4.9571943E-4,2.7030682E-2,1.6129337E-2],"split_indices":[9,4,6,3,6,5,8,8,6,8,5,4,3,6,0,0,0,0,0,0,0,0,0,0,0,0,0,0,0,0,0],"split_type":[0,0,0,0,0,0,0,0,0,0,0,0,0,0,0,0,0,0,0,0,0,0,0,0,0,0,0,0,0,0,0],"sum_hessian":[1.1232045E5,9.2271055E4,2.0049402E4,5.614181E4,3.6129246E4,1.7155322E4,2.8940803E3,2.587169E4,3.0270117E4,1.1737034E4,2.4392213E4,7.9923157E2,1.635609E4,2.8539468E3,4.0133595E1,7.38251E2,2.513344E4,8.360612E2,2.9434057E4,1.1561666E4,1.7536748E2,1.7766682E4,6.625531E3,7.211192E2,7.811232E1,2.6864128E3,1.3669678E4,2.0326626E3,8.212842E2,2.0168526E1,1.9965069E1],"tree_param":{"num_deleted":"0","num_feature":"10","num_nodes":"31","size_leaf_vector":"1"}},{"base_weights":[4.881897E-4,3.989876E-3,-5.7933003E-2,-2.37011E-3,2.9416801E-2,-1.5296368E-1,-5.209317E-2,-1.029212E-2,8.791089E-3,2.4691448E-2,1.1178444E-1,-7.501516E-2,-2.0828699E-1,-2.9194947E-2,-7.5763986E-2,-2.6159864E-3,-3.345353E-4,1.4917616E-3,1.7340806E-4,1.1198998E-3,7.324427E-3,1.5514679E-2,3.7895744E-3,-9.978018E-3,-1.5593604E-3,7.6870923E-4,-1.1535763E-2,2.2465354E-3,-2.5148557E-3,-4.051866E-3,3.918004E-3],"categories":[],"categories_nodes":[],"categories_segments":[],"categories_sizes":[],"default_left":[0,0,0,0,0,0,0,0,0,0,0,0,0,0,0,0,0,0,0,0,0,0,0,0,0,0,0,0,0,0,0],"id":3,"left_children":[1,3,5,7,9,11,13,15,17,19,21,23,25,27,29,-1,-1,-1,-1,-1,-1,-1,-1,-1,-1,-1,-1,-1,-1,-1,-1],"loss_changes":[2.3157791E1,1.7271149E1,3.5366096E0,7.554039E0,8.311535E0,1.5624866E0,3.266035E0,7.5623655E0,3.9726377E0,5.6393433E0,8.232682E0,8.4204334E-1,1.0857611E0,4.806999E0,2.4229965E0,0E0,0E0,0E0,0E0,0E0,0E0,0E0,0E0,0E0,0E0,0E0,0E0,0E0,0E0,0E0,0E0],"parents":[2147483647,0,0,1,1,2,2,3,3,4,4,5,5,6,6,7,7,8,8,9,9,10,10,11,11,12,12,13,13,14,14],"right_children":[2,4,6,8,10,12,14,16,18,20,22,24,26,28,30,-1,-1,-1,-1,-1,-1,-1,-1,-1,-1,-1,-1,-1,-1,-1,-1],"split_conditions":[3.05499E-1,6E0,2.75E0,5.1666665E0,1.75E1,4E0,3.1428573E-1,9.25E0,2.2496691E-1,8.166667E0,6.203474E-1,3.4E0,3.057915E-1,5.6603774E-2,7.2E0,-2.6159864E-3,-3.345353E-4,1.4917616E-3,1.7340806E-4,1.1198998E-3,7.324427E-3,1.5514679E-2,3.7895744E-3,-9.978018E-3,-1.5593604E-3,7.6870923E-4,-1.1535763E-2,2.2465354E-3,-2.5148557E-3,-4.051866E-3,3.918004E-3],"split_indices":[1,6,6,4,7,4,1,7,1,4,0,4,1,9,6,0,0,0,0,0,0,0,0,0,0,0,0,0,0,0,0],"split_type":[0,0,0,0,0,0,0,0,0,0,0,0,0,0,0,0,0,0,0,0,0,0,0,0,0,0,0,0,0,0,0],"sum_hessian":[1.1319654E5,1.0679713E5,6.39941E3,8.543041E4,2.1366723E4,3.6757272E2,6.0318374E3,4.9965785E4,3.546462E4,2.02099E4,1.1568236E3,1.5454138E2,2.1303134E2,3.0682244E3,2.963613E3,3.9415718E3,4.6024215E4,7.1576626E3,2.830696E4,1.9838703E4,3.7119693E2,1.7521764E2,9.816059E2,3.8377655E1,1.1616373E2,1.9472736E1,1.9355861E2,6.794077E2,2.3888167E3,2.866485E3,9.7127975E1],"tree_param":{"num_deleted":"0","num_feature":"10","num_nodes":"31","size_leaf_vector":"1"}},{"base_weights":[1.0769004E-3,3.5970747E-3,-8.0559954E-2,-3.9794073E-3,2.4182038E-2,-1.00497656E-1,7.7904295E-3,-6.834898E-3,3.2518245E-2,5.5498056E-2,1.724075E-2,-3.0886041E-2,-1.1394432E-1,2.1240398E-1,-4.0328123E-2,-7.2585826E-4,4.1827388E-4,3.84499E-3,8.7002787E-4,3.843284E-3,1.1862877E-3,8.208854E-4,1.6967906E-2,2.5497092E-4,-6.573765E-3,-6.8225563E-3,-3.0941486E-3,1.6547328E-2,-1.508679E-3,-3.16535E-3,2.4161795E-2],"categories":[],"categories_nodes":[],"categories_segments":[],"categories_sizes":[],"default_left":[0,0,0,0,0,0,0,0,0,0,0,0,0,0,0,0,0,0,0,0,0,0,0,0,0,0,0,0,0,0,0],"id":4,"left_children":[1,3,5,7,9,11,13,15,17,19,21,23,25,27,29,-1,-1,-1,-1,-1,-1,-1,-1,-1,-1,-1,-1,-1,-1,-1,-1],"loss_changes":[2.3086695E1,1.697697E1,5.920845E0,8.292989E0,6.364004E0,2.5594063E0,6.1269407E0,8.617737E0,3.8713045E0,3.6030636E0,6.345019E0,1.6180141E0,2.6747932E0,3.4266362E0,6.1258087E0,0E0,0E0,0E0,0E0,0E0,0E0,0E0,0E0,0E0,0E0,0E0,0E0,0E0,0E0,0E0,0E0],"parents":[2147483647,0,0,1,1,2,2,3,3,4,4,5,5,6,6,7,7,8,8,9,9,10,10,11,11,12,12,13,13,14,14],"right_children":[2,4,6,8,10,12,14,16,18,20,22,24,26,28,30,-1,-1,-1,-1,-1,-1,-1,-1,-1,-1,-1,-1,-1,-1,-1,-1],"split_conditions":[3.0811772E-1,5.6666665E0,5.4E0,7E0,1.9796215E-1,3.1666667E0,5.75E0,1.32E1,2.2772549E-1,6.712329E-1,1.9333334E1,1E1,5E0,8.372599E-2,6.4E0,-7.2585826E-4,4.1827388E-4,3.84499E-3,8.7002787E-4,3.843284E-3,1.1862877E-3,8.208854E-4,1.6967906E-2,2.5497092E-4,-6.573765E-3,-6.8225563E-3,-3.0941486E-3,1.6547328E-2,-1.508679E-3,-3.16535E-3,2.4161795E-2],"split_indices":[1,6,5,4,1,3,5,7,1,9,7,7,3,9,4,0,0,0,0,0,0,0,0,0,0,0,0,0,0,0,0],"split_type":[0,0,0,0,0,0,0,0,0,0,0,0,0,0,0,0,0,0,0,0,0,0,0,0,0,0,0,0,0,0,0],"sum_hessian":[1.1220864E5,1.0885029E5,3.358356E3,7.956667E4,2.928362E4,2.7398003E3,6.185556E2,7.3794766E4,5.7719043E3,5.3105913E3,2.3973027E4,4.4462552E2,2.2951748E3,1.1646889E2,5.020867E2,4.9020105E4,2.477466E4,1.4644604E3,4.307444E3,3.1734995E3,2.137092E3,2.3914027E4,5.9000744E1,3.288715E2,1.1575403E2,1.6001617E3,6.95013E2,7.774699E1,3.87219E1,4.826612E2,1.9425512E1],"tree_param":{"num_deleted":"0","num_feature":"10","num_nodes":"31","size_leaf_vector":"1"}},{"base_weights":[2.104654E-3,4.658769E-3,-7.966545E-2,1.5802915E-3,3.0118862E-2,-1.0525401E-1,7.786335E-3,-5.37093E-2,2.6561436E-3,2.8403707E-2,1.9762523E-1,-1.5408972E-1,-7.645567E-2,7.320807E-2,-1.2858188E-1,-1.6239521E-3,-5.677582E-3,-1.489306E-4,4.6545794E-4,-7.29622E-4,1.6991517E-3,1.8833723E-3,1.3731278E-2,1.0459388E-2,-8.089668E-3,-5.4328293E-3,9.187471E-4,5.7690474E-3,-2.4591477E-3,-8.254724E-3,3.5341282E-3],"categories":[],"categories_nodes":[],"categories_segments":[],"categories_sizes":[],"default_left":[0,0,0,0,0,0,0,0,0,0,0,0,0,0,0,0,0,0,0,0,0,0,0,0,0,0,0,0,0,0,0],"id":5,"left_children":[1,3,5,7,9,11,13,15,17,19,21,23,25,27,29,-1,-1,-1,-1,-1,-1,-1,-1,-1,-1,-1,-1,-1,-1,-1,-1],"loss_changes":[2.3616749E1,8.594336E0,7.6662197E0,5.819363E0,3.3870277E0,3.7032337E0,6.952494E0,2.3650012E0,3.597474E0,2.8102684E0,1.4517908E0,2.8131237E0,5.1062965E0,2.7288954E0,1.8618736E0,0E0,0E0,0E0,0E0,0E0,0E0,0E0,0E0,0E0,0E0,0E0,0E0,0E0,0E0,0E0,0E0],"parents":[2147483647,0,0,1,1,2,2,3,3,4,4,5,5,6,6,7,7,8,8,9,9,10,10,11,11,12,12,13,13,14,14],"right_children":[2,4,6,8,10,12,14,16,18,20,22,24,26,28,30,-1,-1,-1,-1,-1,-1,-1,-1,-1,-1,-1,-1,-1,-1,-1,-1],"split_conditions":[3.0811772E-1,5.919463E-1,5.4E0,7.3333335E0,2.25E1,2.961083E-1,1.4166667E1,1.2166667E1,1.2666667E1,4E0,8.5E0,7.1666665E0,5E0,7E0,7E0,-1.6239521E-3,-5.677582E-3,-1.489306E-4,4.6545794E-4,-7.29622E-4,1.6991517E-3,1.8833723E-3,1.3731278E-2,1.0459388E-2,-8.089668E-3,-5.4328293E-3,9.187471E-4,5.7690474E-3,-2.4591477E-3,-8.254724E-3,3.5341282E-3],"split_indices":[1,9,5,8,7,2,8,7,8,3,3,7,3,5,5,0,0,0,0,0,0,0,0,0,0,0,0,0,0,0,0],"split_type":[0,0,0,0,0,0,0,0,0,0,0,0,0,0,0,0,0,0,0,0,0,0,0,0,0,0,0,0,0,0,0],"sum_hessian":[1.1307426E5,1.0965116E5,3.4231025E3,9.78249E4,1.182626E4,2.6479114E3,7.7519116E2,1.8653245E3,9.595958E4,1.1708709E4,1.1755044E2,9.7901465E2,1.6688967E3,5.244947E2,2.506965E2,1.3791345E3,4.8618994E2,5.195636E4,4.4003215E4,1.3444789E3,1.036423E4,3.916623E1,7.838421E1,1.9243614E1,9.5977106E2,1.2456344E3,4.232623E2,3.9016733E2,1.3432735E2,2.1216331E2,3.853318E1],"tree_param":{"num_deleted":"0","num_feature":"10","num_nodes":"31","size_leaf_vector":"1"}},{"base_weights":[-3.195132E-4,1.9230552E-3,-6.8424694E-2,-7.0704706E-3,1.4361057E-2,-9.003444E-2,7.3011573E-3,-1.1997992E-2,2.5523217E-2,1.1580672E-2,5.8082096E-2,-1.248858E-1,-7.069829E-2,-1.1274031E-2,1.7307764E-2,-2.5788764E-3,-4.2867774E-4,7.4321066E-4,3.930191E-3,1.3460654E-4,1.0047406E-3,-7.130938E-5,4.0583797E-3,-1.2317228E-2,-4.778155E-3,-1.5994201E-3,-5.459977E-3,-1.2603622E-3,2.2848412E-2],"categories":[],"categories_nodes":[],"categories_segments":[],"categories_sizes":[],"default_left":[0,0,0,0,0,0,0,0,0,0,0,0,0,0,0,0,0,0,0,0,0,0,0,0,0,0,0,0,0],"id":6,"left_children":[1,3,5,7,9,11,13,15,17,19,21,23,25,27,-1,-1,-1,-1,-1,-1,-1,-1,-1,-1,-1,-1,-1,-1,-1],"loss_changes":[1.7176321E1,1.2179325E1,5.8680134E0,1.0149166E1,5.5527573E0,1.86203E0,5.0292873E0,7.439054E0,4.69314E0,3.251058E0,3.7525063E0,3.4884825E0,2.673583E0,4.9700303E0,0E0,0E0,0E0,0E0,0E0,0E0,0E0,0E0,0E0,0E0,0E0,0E0,0E0,0E0,0E0],"parents":[2147483647,0,0,1,1,2,2,3,3,4,4,5,5,6,6,7,7,8,8,9,9,10,10,11,11,12,12,13,13],"right_children":[2,4,6,8,10,12,14,16,18,20,22,24,26,28,-1,-1,-1,-1,-1,-1,-1,-1,-1,-1,-1,-1,-1,-1,-1],"split_conditions":[3.0811772E-1,5.1666665E0,5.4E0,6.9998306E-1,5.919463E-1,2.961083E-1,5.75E0,3E0,6.6E0,4.8E0,1.02E1,3.8725293E-1,5E0,7E0,1.7307764E-2,-2.5788764E-3,-4.2867774E-4,7.4321066E-4,3.930191E-3,1.3460654E-4,1.0047406E-3,-7.130938E-5,4.0583797E-3,-1.2317228E-2,-4.778155E-3,-1.5994201E-3,-5.459977E-3,-1.2603622E-3,2.2848412E-2],"split_indices":[1,4,5,0,9,2,6,6,6,6,7,0,4,4,0,0,0,0,0,0,0,0,0,0,0,0,0,0,0],"split_type":[0,0,0,0,0,0,0,0,0,0,0,0,0,0,0,0,0,0,0,0,0,0,0,0,0,0,0,0,0],"sum_hessian":[1.1245789E5,1.08874805E5,3.5830874E3,6.3187086E4,4.568772E4,2.7873022E3,7.957853E2,5.489006E4,8.297028E3,4.2958363E4,2.7293545E3,9.9071906E2,1.7965831E3,7.562622E2,3.9523064E1,4.3686953E3,5.0521363E4,6.9116704E3,1.3853579E3,2.1018365E4,2.1939998E4,7.633968E2,1.9659576E3,1.8978802E2,8.009311E2,8.9769E2,8.988932E2,7.3624646E2,2.0015724E1],"tree_param":{"num_deleted":"0","num_feature":"10","num_nodes":"29","size_leaf_vector":"1"}},{"base_weights":[-2.2713604E-5,2.4646672E-3,-7.871299E-2,-1.3829195E-3,3.3584896E-2,-9.8817706E-2,-1.179771E-2,-4.2407647E-2,1.0205231E-3,1.348985E-2,4.8814297E-2,-9.986304E-3,-1.08803235E-1,1.4479871E-1,-6.395886E-2,-3.3196341E-3,-7.9282885E-4,-2.870696E-4,5.8670057E-4,-2.901713E-3,1.5540265E-3,2.6228356E-3,-5.2412185E-3,1.2922451E-2,-1.6324343E-3,-6.5485784E-3,-2.4857803E-3,9.086822E-3,-8.725021E-3,-4.1613667E-3,2.1867232E-2],"categories":[],"categories_nodes":[],"categories_segments":[],"categories_sizes":[],"default_left":[0,0,0,0,0,0,0,0,0,0,0,0,0,0,0,0,0,0,0,0,0,0,0,0,0,0,0,0,0,0,0],"id":7,"left_children":[1,3,5,7,9,11,13,15,17,19,21,23,25,27,29,-1,-1,-1,-1,-1,-1,-1,-1,-1,-1,-1,-1,-1,-1,-1,-1],"loss_changes":[2.195161E1,1.3017332E1,4.6207542E0,9.540123E0,3.6595373E0,2.3415623E0,6.522173E0,3.4079304E0,6.6216087E0,6.4957147E0,3.818718E0,1.6545321E0,3.0979652E0,2.417048E0,5.8553963E0,0E0,0E0,0E0,0E0,0E0,0E0,0E0,0E0,0E0,0E0,0E0,0E0,0E0,0E0,0E0,0E0],"parents":[2147483647,0,0,1,1,2,2,3,3,4,4,5,5,6,6,7,7,8,8,9,9,10,10,11,11,12,12,13,13,14,14],"right_children":[2,4,6,8,10,12,14,16,18,20,22,24,26,28,30,-1,-1,-1,-1,-1,-1,-1,-1,-1,-1,-1,-1,-1,-1,-1,-1],"split_conditions":[3.0811772E-1,5.919463E-1,5.4E0,2.75E0,4E0,2.75E0,5.75E0,6.2E0,5.25E0,5E0,9E0,2.6666667E0,5E0,1.34E1,7E0,-3.3196341E-3,-7.9282885E-4,-2.870696E-4,5.8670057E-4,-2.901713E-3,1.5540265E-3,2.6228356E-3,-5.2412185E-3,1.2922451E-2,-1.6324343E-3,-6.5485784E-3,-2.4857803E-3,9.086822E-3,-8.725021E-3,-4.1613667E-3,2.1867232E-2],"split_indices":[1,9,5,6,4,3,5,5,4,3,5,5,3,7,4,0,0,0,0,0,0,0,0,0,0,0,0,0,0,0,0],"split_type":[0,0,0,0,0,0,0,0,0,0,0,0,0,0,0,0,0,0,0,0,0,0,0,0,0,0,0,0,0,0,0],"sum_hessian":[1.1214699E5,1.08712555E5,3.4344404E3,9.6752375E4,1.1960184E4,2.6402295E3,7.9421094E2,5.3527183E3,9.139966E4,5.1580107E3,6.8021733E3,2.6720148E2,2.3730278E3,1.9755779E2,5.9665314E2,2.8106777E3,2.5420403E3,5.6034133E4,3.536552E4,1.0172501E3,4.1407607E3,6.6459307E3,1.5624236E2,1.9182045E1,2.4801944E2,1.7238466E3,6.491813E2,1.778456E2,1.9712198E1,5.7617487E2,2.0478315E1],"tree_param":{"num_deleted":"0","num_feature":"10","num_nodes":"31","size_leaf_vector":"1"}},{"base_weights":[-9.133047E-4,2.7118477E-3,-5.508175E-2,-3.2210925E-3,2.5969181E-2,-8.705074E-2,-2.8918281E-2,-3.473597E-2,-7.783336E-4,2.0856842E-2,1.20871045E-1,-6.818438E-2,-1.3144624E-1,-2.3693046E-1,-2.2642707E-2,-7.9339754E-4,-3.4186207E-3,-1.5111436E-3,1.2796308E-4,1.2485146E-2,9.98123E-4,1.3301402E-2,4.2455853E-3,-2.3588755E-3,-7.10144E-3,-3.811782E-3,-9.431585E-3,-8.581866E-3,-1.4676198E-2,-3.48182E-3,-2.571643E-6],"categories":[],"categories_nodes":[],"categories_segments":[],"categories_sizes":[],"default_left":[0,0,0,0,0,0,0,0,0,0,0,0,0,0,0,0,0,0,0,0,0,0,0,0,0,0,0,0,0,0,0],"id":8,"left_children":[1,3,5,7,9,11,13,15,17,19,21,23,25,27,29,-1,-1,-1,-1,-1,-1,-1,-1,-1,-1,-1,-1,-1,-1,-1,-1],"loss_changes":[2.247762E1,1.4804068E1,6.0004616E0,6.5806637E0,1.0574742E1,2.6878624E0,5.1475625E0,3.900425E0,7.7967486E0,4.225624E0,5.7708664E0,3.5098085E0,3.0061703E0,3.260765E-1,4.074599E0,0E0,0E0,0E0,0E0,0E0,0E0,0E0,0E0,0E0,0E0,0E0,0E0,0E0,0E0,0E0,0E0],"parents":[2147483647,0,0,1,1,2,2,3,3,4,4,5,5,6,6,7,7,8,8,9,9,10,10,11,11,12,12,13,13,14,14],"right_children":[2,4,6,8,10,12,14,16,18,20,22,24,26,28,30,-1,-1,-1,-1,-1,-1,-1,-1,-1,-1,-1,-1,-1,-1,-1,-1],"split_conditions":[3.02799E-1,6E0,4.5E0,2.8333333E0,1.75E1,3.1681588E-1,2.5E0,3.306083E-1,3.5E0,1.6E0,6.203474E-1,4.1666665E0,6.926743E-2,1.3377795E-1,4.4E0,-7.9339754E-4,-3.4186207E-3,-1.5111436E-3,1.2796308E-4,1.2485146E-2,9.98123E-4,1.3301402E-2,4.2455853E-3,-2.3588755E-3,-7.10144E-3,-3.811782E-3,-9.431585E-3,-8.581866E-3,-1.4676198E-2,-3.48182E-3,-2.571643E-6],"split_indices":[1,6,5,6,7,1,6,0,5,4,0,5,9,9,4,0,0,0,0,0,0,0,0,0,0,0,0,0,0,0,0],"split_type":[0,0,0,0,0,0,0,0,0,0,0,0,0,0,0,0,0,0,0,0,0,0,0,0,0,0,0,0,0,0,0],"sum_hessian":[1.144628E5,1.07284805E5,7.177995E3,8.548048E4,2.1804326E4,3.22848E3,3.9495151E3,6.1471772E3,7.93333E4,2.069209E4,1.1122378E3,2.2692212E3,9.59259E2,1.13511696E2,3.8360034E3,3.9400115E3,2.2071658E3,8.0753945E3,7.125791E4,7.838875E1,2.06137E4,2.1828616E2,8.939516E2,1.7692047E3,5.000164E2,4.9043094E2,4.68828E2,5.6449883E1,5.7061813E1,1.2440348E3,2.5919685E3],"tree_param":{"num_deleted":"0","num_feature":"10","num_nodes":"31","size_leaf_vector":"1"}},{"base_weights":[-4.7677954E-6,-1.1687898E-2,9.735818E-3,-4.095478E-2,-7.483618E-3,5.2580717E-3,3.7629098E-2,-4.9052805E-2,2.9454812E-2,-1.9156648E-2,5.1145065E-3,-4.1961984E-4,2.765379E-2,2.8794067E-2,7.8571156E-2,1.7393425E-2,-2.52547E-3,5.614349E-4,1.0471277E-2,-2.798412E-3,-7.3784444E-4,-7.538776E-4,7.873717E-4,1.1860387E-5,-1.0001377E-2,2.824649E-4,3.0080695E-3,1.279631E-3,6.8372497E-3,2.695008E-3,8.866469E-3],"categories":[],"categories_nodes":[],"categories_segments":[],"categories_sizes":[],"default_left":[0,0,0,0,0,0,0,0,0,0,0,0,0,0,0,0,0,0,0,0,0,0,0,0,0,0,0,0,0,0,0],"id":9,"left_children":[1,3,5,7,9,11,13,15,17,19,21,23,25,27,29,-1,-1,-1,-1,-1,-1,-1,-1,-1,-1,-1,-1,-1,-1,-1,-1],"loss_changes":[1.279309E1,6.2885046E0,7.6565375E0,3.6632404E0,6.5728436E0,6.7173204E0,3.0627995E0,3.3642788E0,2.171473E0,3.7557507E0,4.615876E0,5.525665E0,7.641758E0,2.4045248E0,3.6451454E0,0E0,0E0,0E0,0E0,0E0,0E0,0E0,0E0,0E0,0E0,0E0,0E0,0E0,0E0,0E0,0E0],"parents":[2147483647,0,0,1,1,2,2,3,3,4,4,5,5,6,6,7,7,8,8,9,9,10,10,11,11,12,12,13,13,14,14],"right_children":[2,4,6,8,10,12,14,16,18,20,22,24,26,28,30,-1,-1,-1,-1,-1,-1,-1,-1,-1,-1,-1,-1,-1,-1,-1,-1],"split_conditions":[4.6E0,2.8333333E0,5.755895E-1,1.9166666E1,4.8333335E0,1.36E1,5.2E0,4.3333335E0,7.3333335E0,3.6E0,1.2166667E1,6.558683E-1,1.2666667E1,1.5833333E1,1.48E1,1.7393425E-2,-2.52547E-3,5.614349E-4,1.0471277E-2,-2.798412E-3,-7.3784444E-4,-7.538776E-4,7.873717E-4,1.1860387E-5,-1.0001377E-2,2.824649E-4,3.0080695E-3,1.279631E-3,6.8372497E-3,2.695008E-3,8.866469E-3],"split_indices":[6,6,9,8,3,8,4,8,4,4,8,2,7,8,7,0,0,0,0,0,0,0,0,0,0,0,0,0,0,0,0],"split_type":[0,0,0,0,0,0,0,0,0,0,0,0,0,0,0,0,0,0,0,0,0,0,0,0,0,0,0,0,0,0,0],"sum_hessian":[1.1241279E5,5.1109832E4,6.1302957E4,6.4176606E3,4.469217E4,5.2825227E4,8.477729E3,5.756226E3,6.614346E2,2.3197266E4,2.1494906E4,4.2143184E4,1.0682044E4,6.9758022E3,1.5019268E3,1.9307467E1,5.7369185E3,6.0253864E2,5.889591E1,2.4740576E3,2.0723207E4,7.414274E3,1.4080632E4,4.2006953E4,1.3622998E2,6.371502E3,4.3105415E3,6.7772856E3,1.9851651E2,1.2041957E3,2.9773108E2],"tree_param":{"num_deleted":"0","num_feature":"10","num_nodes":"31","size_leaf_vector":"1"}},{"base_weights":[-7.787476E-4,2.5585282E-3,-5.0611567E-2,-1.0075115E-3,3.3546347E-2,-1.626511E-1,-4.3601498E-2,-6.458203E-3,1.0881761E-2,3.202489E-2,4.2136776E-1,-1.3389677E-1,-2.3567872E-1,-1.1178014E-1,-3.3769786E-2,-9.049388E-4,-3.4261102E-5,8.795723E-5,1.552334E-3,1.1309808E-3,4.140038E-3,1.4591316E-2,2.5948405E-2,-8.29004E-3,-1.920791E-3,-9.265233E-3,-1.6061192E-2,-1.3878359E-2,-4.025508E-3,-7.687989E-3,-1.3115718E-3],"categories":[],"categories_nodes":[],"categories_segments":[],"categories_sizes":[],"default_left":[0,0,0,0,0,0,0,0,0,0,0,0,0,0,0,0,0,0,0,0,0,0,0,0,0,0,0,0,0,0,0],"id":10,"left_children":[1,3,5,7,9,11,13,15,17,19,21,23,25,27,29,-1,-1,-1,-1,-1,-1,-1,-1,-1,-1,-1,-1,-1,-1,-1,-1],"loss_changes":[1.8762247E1,1.1684411E1,5.547365E0,6.14536E0,6.4118986E0,8.109083E-1,4.4613533E0,4.369361E0,5.483427E0,5.188245E0,2.34169E-1,9.1109514E-1,3.7633228E-1,4.3067207E0,5.2648907E0,0E0,0E0,0E0,0E0,0E0,0E0,0E0,0E0,0E0,0E0,0E0,0E0,0E0,0E0,0E0,0E0],"parents":[2147483647,0,0,1,1,2,2,3,3,4,4,5,5,6,6,7,7,8,8,9,9,10,10,11,11,12,12,13,13,14,14],"right_children":[2,4,6,8,10,12,14,16,18,20,22,24,26,28,30,-1,-1,-1,-1,-1,-1,-1,-1,-1,-1,-1,-1,-1,-1,-1,-1],"split_conditions":[3.02799E-1,6.6E0,2.75E0,5.4E0,1.6833334E1,5.75E0,2.631579E-1,1.14E1,5.6E0,5.846031E-1,1.6482101E-1,1.1E1,4.4E0,1.7750573E-1,3.1666667E0,-9.049388E-4,-3.4261102E-5,8.795723E-5,1.552334E-3,1.1309808E-3,4.140038E-3,1.4591316E-2,2.5948405E-2,-8.29004E-3,-1.920791E-3,-9.265233E-3,-1.6061192E-2,-1.3878359E-2,-4.025508E-3,-7.687989E-3,-1.3115718E-3],"split_indices":[1,6,6,4,8,5,2,8,5,9,1,8,4,9,4,0,0,0,0,0,0,0,0,0,0,0,0,0,0,0,0],"split_type":[0,0,0,0,0,0,0,0,0,0,0,0,0,0,0,0,0,0,0,0,0,0,0,0,0,0,0,0,0,0,0],"sum_hessian":[1.1281417E5,1.0573505E5,7.0791196E3,9.482468E4,1.0910371E4,4.1422925E2,6.66489E3,6.501786E4,2.9806818E4,1.0869893E4,4.0478394E1,3.0127173E2,1.1295752E2,8.373681E2,5.827522E3,2.1553453E4,4.3464406E4,2.0523951E4,9.282868E3,9.173556E3,1.6963378E3,2.0822052E1,1.9656342E1,2.2471309E2,7.655864E1,7.507891E1,3.787861E1,1.3037794E2,7.069902E2,3.4217853E2,5.4853438E3],"tree_param":{"num_deleted":"0","num_feature":"10","num_nodes":"31","size_leaf_vector":"1"}},{"base_weights":[1.4111982E-4,2.4350162E-3,-7.580115E-2,-3.8375948E-3,1.9816164E-2,-1.0191548E-1,-5.880342E-3,-1.0271039E-2,9.735278E-3,1.6417451E-2,7.718965E-2,2.8871417E-3,-1.158539E-1,4.1758563E-2,-1.1974934E-1,1.1774634E-2,-5.269949E-4,-3.196409E-4,1.1608078E-3,2.0853258E-3,4.5021073E-4,-9.837063E-4,5.1038037E-3,3.3512034E-3,-8.633877E-3,-7.162356E-3,-2.6049023E-3,-4.784177E-3,3.612525E-3,-1.258568E-2,-3.2657918E-3],"categories":[],"categories_nodes":[],"categories_segments":[],"categories_sizes":[],"default_left":[0,0,0,0,0,0,0,0,0,0,0,0,0,0,0,0,0,0,0,0,0,0,0,0,0,0,0,0,0,0,0],"id":11,"left_children":[1,3,5,7,9,11,13,15,17,19,21,23,25,27,29,-1,-1,-1,-1,-1,-1,-1,-1,-1,-1,-1,-1,-1,-1,-1,-1],"loss_changes":[1.9767769E1,1.2009036E1,6.073883E0,7.0679045E0,5.693265E0,3.5390606E0,4.929266E0,3.6333938E0,5.6595354E0,5.16955E0,3.9405947E0,3.246806E0,3.718996E0,2.699514E0,1.8922579E0,0E0,0E0,0E0,0E0,0E0,0E0,0E0,0E0,0E0,0E0,0E0,0E0,0E0,0E0,0E0,0E0],"parents":[2147483647,0,0,1,1,2,2,3,3,4,4,5,5,6,6,7,7,8,8,9,9,10,10,11,11,12,12,13,13,14,14],"right_children":[2,4,6,8,10,12,14,16,18,20,22,24,26,28,30,-1,-1,-1,-1,-1,-1,-1,-1,-1,-1,-1,-1,-1,-1,-1,-1],"split_conditions":[3.0811772E-1,5.6666665E0,5.25E0,1.32E1,1.5E1,3.1666667E0,1.4166667E1,4.3333335E0,1.2666667E1,2.085177E-1,5.75E0,1E1,5E0,3E0,3.154977E-1,1.1774634E-2,-5.269949E-4,-3.196409E-4,1.1608078E-3,2.0853258E-3,4.5021073E-4,-9.837063E-4,5.1038037E-3,3.3512034E-3,-8.633877E-3,-7.162356E-3,-2.6049023E-3,-4.784177E-3,3.612525E-3,-1.258568E-2,-3.2657918E-3],"split_indices":[1,6,5,7,8,3,8,8,8,1,6,7,3,3,1,0,0,0,0,0,0,0,0,0,0,0,0,0,0,0,0],"split_type":[0,0,0,0,0,0,0,0,0,0,0,0,0,0,0,0,0,0,0,0,0,0,0,0,0,0,0,0,0,0,0],"sum_hessian":[1.13470914E5,1.1014581E5,3.3251055E3,8.093799E4,2.920782E4,2.4202607E3,9.0484467E2,5.491104E4,2.6026951E4,2.7576787E4,1.6310326E3,2.8428842E2,2.1359724E3,6.388417E2,2.6600302E2,5.809356E1,5.4852945E4,1.1850474E4,1.4176478E4,6.2492437E3,2.1327543E4,3.3347794E2,1.2975547E3,2.0912704E2,7.5161385E1,1.4922999E3,6.436725E2,1.1521867E2,5.23623E2,7.556377E1,1.9043925E2],"tree_param":{"num_deleted":"0","num_feature":"10","num_nodes":"31","size_leaf_vector":"1"}},{"base_weights":[-9.332143E-4,2.1787395E-3,-4.7729626E-2,-2.987034E-3,2.2164624E-2,-7.694402E-2,-2.3452599E-2,1.7494429E-2,-3.1601212E-3,1.7315248E-2,9.93745E-2,-9.160969E-2,-9.669744E-3,-1.9130725E-1,-1.4744533E-2,-4.0730587E-4,3.401532E-4,7.093267E-4,6.476818E-3,1.2728303E-2,3.3304244E-3,-1.6493725E-3,-5.351448E-3,8.716217E-3,-1.5414798E-3,-1.0205498E-2,-3.4547464E-3,-8.425328E-4,1.7335556E-2],"categories":[],"categories_nodes":[],"categories_segments":[],"categories_sizes":[],"default_left":[0,0,0,0,0,0,0,0,0,0,0,0,0,0,0,0,0,0,0,0,0,0,0,0,0,0,0,0,0],"id":12,"left_children":[1,3,5,7,9,11,13,-1,15,17,19,21,23,25,27,-1,-1,-1,-1,-1,-1,-1,-1,-1,-1,-1,-1,-1,-1],"loss_changes":[1.6473629E1,1.0950882E1,4.998991E0,5.150204E0,8.153313E0,3.1557503E0,5.6293764E0,0E0,4.1851387E0,7.1940556E0,6.510434E0,2.3677883E0,2.2495232E0,2.690277E-1,2.8033912E0,0E0,0E0,0E0,0E0,0E0,0E0,0E0,0E0,0E0,0E0,0E0,0E0,0E0,0E0],"parents":[2147483647,0,0,1,1,2,2,3,3,4,4,5,5,6,6,8,8,9,9,10,10,11,11,12,12,13,13,14,14],"right_children":[2,4,6,8,10,12,14,-1,16,18,20,22,24,26,28,-1,-1,-1,-1,-1,-1,-1,-1,-1,-1,-1,-1,-1,-1],"split_conditions":[3.02799E-1,6E0,4.5E0,4.3333335E0,1.7333334E1,5.2E0,3E0,1.7494429E-2,1.32E1,1.5833333E1,6.203474E-1,3E0,1.075E1,6.1666665E0,1.875E1,-4.0730587E-4,3.401532E-4,7.093267E-4,6.476818E-3,1.2728303E-2,3.3304244E-3,-1.6493725E-3,-5.351448E-3,8.716217E-3,-1.5414798E-3,-1.0205498E-2,-3.4547464E-3,-8.425328E-4,1.7335556E-2],"split_indices":[1,6,5,8,7,3,4,0,7,8,0,5,7,3,8,0,0,0,0,0,0,0,0,0,0,0,0,0,0],"split_type":[0,0,0,0,0,0,0,0,0,0,0,0,0,0,0,0,0,0,0,0,0,0,0,0,0,0,0,0,0],"sum_hessian":[1.1311766E5,1.0606618E5,7.051477E3,8.428313E4,2.178305E4,3.1983364E3,3.8531409E3,3.9339928E1,8.424379E4,2.0498062E4,1.2849882E3,2.625302E3,5.7303436E2,1.8796837E2,3.6651726E3,5.6146227E4,2.8097564E4,1.9944271E4,5.537916E2,2.2164757E2,1.0633406E3,5.48031E2,2.077271E3,5.7610367E1,5.15424E2,1.6893124E2,1.903713E1,3.645836E3,1.933671E1],"tree_param":{"num_deleted":"0","num_feature":"10","num_nodes":"29","size_leaf_vector":"1"}},{"base_weights":[1.2429648E-3,3.5731047E-3,-6.996874E-2,5.1443675E-4,2.797923E-2,-8.927019E-2,-7.4112816E-3,-8.184782E-3,6.5520457E-3,6.6932556E-3,4.5482907E-2,-1.4290452E-2,-1.0261824E-1,-1.950412E-1,2.1284085E-2,7.7324845E-3,-4.374914E-4,6.465358E-5,1.1897605E-3,-3.1941698E-3,1.1143876E-3,-2.1672997E-4,2.8022188E-3,1.7677859E-3,-5.069879E-3,-6.141783E-3,-2.3590594E-3,-2.6990867E-3,-1.106338E-2,4.2283973E-3,-2.9423984E-3],"categories":[],"categories_nodes":[],"categories_segments":[],"categories_sizes":[],"default_left":[0,0,0,0,0,0,0,0,0,0,0,0,0,0,0,0,0,0,0,0,0,0,0,0,0,0,0,0,0,0,0],"id":13,"left_children":[1,3,5,7,9,11,13,15,17,19,21,23,25,27,29,-1,-1,-1,-1,-1,-1,-1,-1,-1,-1,-1,-1,-1,-1,-1,-1],"loss_changes":[1.879409E1,8.187105E0,4.331833E0,5.119018E0,4.55009E0,2.741682E0,4.575938E0,3.6766474E0,5.2171073E0,6.071412E0,3.5267687E0,1.8093913E0,2.5971584E0,3.931551E-1,3.7504952E0,0E0,0E0,0E0,0E0,0E0,0E0,0E0,0E0,0E0,0E0,0E0,0E0,0E0,0E0,0E0,0E0],"parents":[2147483647,0,0,1,1,2,2,3,3,4,4,5,5,6,6,7,7,8,8,9,9,10,10,11,11,12,12,13,13,14,14],"right_children":[2,4,6,8,10,12,14,16,18,20,22,24,26,28,30,-1,-1,-1,-1,-1,-1,-1,-1,-1,-1,-1,-1,-1,-1,-1,-1],"split_conditions":[3.0811772E-1,5.919463E-1,5.4E0,4.6666665E0,4E0,3.1666667E0,3.4E0,1.8333334E0,5.3333335E0,5E0,4E0,3.8118812E-1,5E0,3.0688563E-1,1.325E1,7.7324845E-3,-4.374914E-4,6.465358E-5,1.1897605E-3,-3.1941698E-3,1.1143876E-3,-2.1672997E-4,2.8022188E-3,1.7677859E-3,-5.069879E-3,-6.141783E-3,-2.3590594E-3,-2.6990867E-3,-1.106338E-2,4.2283973E-3,-2.9423984E-3],"split_indices":[1,9,5,4,4,3,4,5,3,3,3,0,3,0,8,0,0,0,0,0,0,0,0,0,0,0,0,0,0,0,0],"split_type":[0,0,0,0,0,0,0,0,0,0,0,0,0,0,0,0,0,0,0,0,0,0,0,0,0,0,0,0,0,0,0],"sum_hessian":[1.1325793E5,1.0967124E5,3.5866868E3,9.745932E4,1.2211928E4,2.7403318E3,8.463549E2,3.992833E4,5.753099E4,5.5118315E3,6.700096E3,4.1474338E2,2.3255886E3,1.1073035E2,7.356246E2,1.3618848E2,3.979214E4,4.408707E4,1.3443918E4,9.963621E2,4.5154697E3,1.1721846E3,5.5279116E3,2.6493405E2,1.4980931E2,1.7023313E3,6.2325726E2,1.8318794E1,9.241156E1,4.1096024E2,3.2466434E2],"tree_param":{"num_deleted":"0","num_feature":"10","num_nodes":"31","size_leaf_vector":"1"}},{"base_weights":[5.029489E-4,2.67895E-3,-5.463357E-2,-2.133145E-3,1.6101578E-2,-8.771664E-2,-2.7401946E-2,-3.0961774E-2,8.2481396E-4,1.4671568E-2,1.2681742E-1,-1.402313E-1,-5.8728885E-2,-1.5898417E-1,-1.6076406E-2,7.962733E-3,-1.6519219E-3,-1.5240911E-3,1.854996E-4,4.8647757E-4,2.2475095E-3,3.0387849E-2,4.72708E-3,6.3244537E-3,-7.813737E-3,-3.7317008E-3,9.114053E-3,-1.7882405E-3,-1.1961011E-2,-1.0728183E-3,8.451947E-3],"categories":[],"categories_nodes":[],"categories_segments":[],"categories_sizes":[],"default_left":[0,0,0,0,0,0,0,0,0,0,0,0,0,0,0,0,0,0,0,0,0,0,0,0,0,0,0,0,0,0,0],"id":14,"left_children":[1,3,5,7,9,11,13,15,17,19,21,23,25,27,29,-1,-1,-1,-1,-1,-1,-1,-1,-1,-1,-1,-1,-1,-1,-1,-1],"loss_changes":[1.3563747E1,7.024984E0,3.8621578E0,6.827107E0,4.540472E0,2.9322443E0,3.5077891E0,2.9534721E0,6.558929E0,4.239551E0,5.5621095E0,2.9814224E0,4.824716E0,1.827642E0,2.1710563E0,0E0,0E0,0E0,0E0,0E0,0E0,0E0,0E0,0E0,0E0,0E0,0E0,0E0,0E0,0E0,0E0],"parents":[2147483647,0,0,1,1,2,2,3,3,4,4,5,5,6,6,7,7,8,8,9,9,10,10,11,11,12,12,13,13,14,14],"right_children":[2,4,6,8,10,12,14,16,18,20,22,24,26,28,30,-1,-1,-1,-1,-1,-1,-1,-1,-1,-1,-1,-1,-1,-1,-1,-1],"split_conditions":[3.0670926E-1,5.6666665E0,4.5E0,3.5E0,2.0166666E1,2.961083E-1,3.4E0,1.3333334E0,2.8333333E0,5.6E0,5.608856E-1,7.1666665E0,5.4E0,5.2E0,7.1666665E0,7.962733E-3,-1.6519219E-3,-1.5240911E-3,1.854996E-4,4.8647757E-4,2.2475095E-3,3.0387849E-2,4.72708E-3,6.3244537E-3,-7.813737E-3,-3.7317008E-3,9.114053E-3,-1.7882405E-3,-1.1961011E-2,-1.0728183E-3,8.451947E-3],"split_indices":[1,6,5,5,7,2,4,5,6,5,0,7,3,3,6,0,0,0,0,0,0,0,0,0,0,0,0,0,0,0,0],"split_type":[0,0,0,0,0,0,0,0,0,0,0,0,0,0,0,0,0,0,0,0,0,0,0,0,0,0,0,0,0,0,0],"sum_hessian":[1.13048336E5,1.0875803E5,4.2903086E3,8.005831E4,2.8699717E4,1.9350358E3,2.355273E3,7.4482104E3,7.26101E4,2.8335994E4,3.6372375E2,6.8549945E2,1.2495363E3,1.8459053E2,2.1706824E3,7.880199E1,7.3694087E3,6.1253804E3,6.648473E4,2.4362273E4,3.9737195E3,2.0631725E1,3.43092E2,3.8112663E1,6.473868E2,1.173475E3,7.606127E1,7.393667E1,1.1065386E2,2.1110964E3,5.9586056E1],"tree_param":{"num_deleted":"0","num_feature":"10","num_nodes":"31","size_leaf_vector":"1"}},{"base_weights":[-2.0022786E-3,-1.3809378E-2,5.9813494E-3,-3.9278902E-2,-9.670882E-3,3.8336257E-3,4.1099418E-2,-1.3920024E-2,-3.6989946E-2,-1.1341258E-2,7.357125E-2,8.55272E-4,2.9114919E-2,1.4443281E-1,1.8355783E-2,-3.7500896E-3,-1.224777E-3,-1.8545784E-3,-3.5989843E-4,1.602569E-3,8.2862275E-3,-2.882555E-4,6.266532E-4,7.978614E-4,3.714744E-3,3.2144946E-3,1.094011E-2,7.115609E-4,1.5800036E-2],"categories":[],"categories_nodes":[],"categories_segments":[],"categories_sizes":[],"default_left":[0,0,0,0,0,0,0,0,0,0,0,0,0,0,0,0,0,0,0,0,0,0,0,0,0,0,0,0,0],"id":15,"left_children":[1,3,5,7,9,11,13,-1,15,17,19,21,23,25,27,-1,-1,-1,-1,-1,-1,-1,-1,-1,-1,-1,-1,-1,-1],"loss_changes":[1.0554949E1,4.7604113E0,5.0382338E0,3.4347773E0,5.4048395E0,4.740268E0,9.042474E0,0E0,2.9672775E0,4.063996E0,2.9152288E0,4.3545027E0,3.9418674E0,4.1094084E0,3.8674903E0,0E0,0E0,0E0,0E0,0E0,0E0,0E0,0E0,0E0,0E0,0E0,0E0,0E0,0E0],"parents":[2147483647,0,0,1,1,2,2,3,3,4,4,5,5,6,6,8,8,9,9,10,10,11,11,12,12,13,13,14,14],"right_children":[2,4,6,8,10,12,14,-1,16,18,20,22,24,26,28,-1,-1,-1,-1,-1,-1,-1,-1,-1,-1,-1,-1,-1,-1],"split_conditions":[4.5E0,2.8333333E0,7.5E0,2E0,8.166667E0,6.1666665E0,7.6E0,-1.3920024E-2,1.24E1,9.4E0,1.02E1,5.3333335E0,5.731606E-1,5.1666665E0,6.1666665E0,-3.7500896E-3,-1.224777E-3,-1.8545784E-3,-3.5989843E-4,1.602569E-3,8.2862275E-3,-2.882555E-4,6.266532E-4,7.978614E-4,3.714744E-3,3.2144946E-3,1.094011E-2,7.115609E-4,1.5800036E-2],"split_indices":[6,6,6,3,4,5,6,0,8,7,7,4,0,3,5,0,0,0,0,0,0,0,0,0,0,0,0,0,0],"split_type":[0,0,0,0,0,0,0,0,0,0,0,0,0,0,0,0,0,0,0,0,0,0,0,0,0,0,0,0,0],"sum_hessian":[1.1196908E5,4.516801E4,6.680107E4,6.3110396E3,3.8856973E4,6.2953242E4,3.8478271E3,5.755121E1,6.2534883E3,3.809428E4,7.626903E2,5.6320293E4,6.6329473E3,6.921975E2,3.1556296E3,1.5445339E3,4.708954E3,5.277709E3,3.2816574E4,5.276514E2,2.3503886E2,3.594394E4,2.0376354E4,5.139024E3,1.4939237E3,3.349612E2,3.5723633E2,3.1145657E3,4.1063957E1],"tree_param":{"num_deleted":"0","num_feature":"10","num_nodes":"29","size_leaf_vector":"1"}},{"base_weights":[1.4888512E-3,4.590008E-3,-4.65788E-2,1.9019007E-3,3.453201E-2,-1.2209157E-1,-3.6417946E-2,-6.3254884E-3,1.3442108E-2,2.9508699E-2,1.14652395E-1,-2.8945398E-1,-1.00338355E-1,-1.3787006E-1,-3.036658E-2,-8.057933E-4,3.1194702E-4,2.9527922E-3,5.4937997E-4,1.6202854E-3,-5.0132335E-3,-9.108072E-3,6.3804337E-3,-1.2235717E-2,-1.6972333E-2,-5.84853E-3,4.7152224E-3,-9.097367E-3,9.677778E-3,-2.2118243E-3,7.283466E-4],"categories":[],"categories_nodes":[],"categories_segments":[],"categories_sizes":[],"default_left":[0,0,0,0,0,0,0,0,0,0,0,0,0,0,0,0,0,0,0,0,0,0,0,0,0,0,0,0,0,0,0],"id":16,"left_children":[1,3,5,7,9,11,13,15,17,19,21,23,25,27,29,-1,-1,-1,-1,-1,-1,-1,-1,-1,-1,-1,-1,-1,-1,-1,-1],"loss_changes":[1.6741142E1,8.491281E0,5.2135983E0,9.1919565E0,3.4911356E0,2.8777657E0,3.6764913E0,6.952631E0,4.5099816E0,3.0821953E0,2.0156884E0,3.895712E-2,2.3422933E0,4.997764E0,3.5330038E0,0E0,0E0,0E0,0E0,0E0,0E0,0E0,0E0,0E0,0E0,0E0,0E0,0E0,0E0,0E0,0E0],"parents":[2147483647,0,0,1,1,2,2,3,3,4,4,5,5,6,6,7,7,8,8,9,9,10,10,11,11,12,12,13,13,14,14],"right_children":[2,4,6,8,10,12,14,16,18,20,22,24,26,28,30,-1,-1,-1,-1,-1,-1,-1,-1,-1,-1,-1,-1,-1,-1,-1,-1],"split_conditions":[3.02799E-1,6.8333335E0,2.6212862E-1,5.1666665E0,1.75E1,4.3029594E-1,3.1666667E0,1.32E1,1.7250673E-1,9.75E0,1.8333334E0,2.54872E-1,3.1796116E-1,4.139553E-1,5.4E0,-8.057933E-4,3.1194702E-4,2.9527922E-3,5.4937997E-4,1.6202854E-3,-5.0132335E-3,-9.108072E-3,6.3804337E-3,-1.2235717E-2,-1.6972333E-2,-5.84853E-3,4.7152224E-3,-9.097367E-3,9.677778E-3,-2.2118243E-3,7.283466E-4],"split_indices":[1,6,2,4,7,0,4,7,1,6,4,2,1,0,5,0,0,0,0,0,0,0,0,0,0,0,0,0,0,0,0],"split_type":[0,0,0,0,0,0,0,0,0,0,0,0,0,0,0,0,0,0,0,0,0,0,0,0,0,0,0,0,0,0,0],"sum_hessian":[1.12302555E5,1.05498E5,6.804553E3,9.68089E4,8.6891E3,8.044039E2,6.0001494E3,5.6517E4,4.0291902E4,8.1790347E3,5.1006458E2,8.969629E1,7.147076E2,3.352959E2,5.6648535E3,3.1764836E4,2.4752164E4,2.0550708E3,3.8236832E4,8.0019043E3,1.7713066E2,2.024122E1,4.8982336E2,5.3556908E1,3.613938E1,6.591788E2,5.552879E1,2.9673438E2,3.856153E1,4.328714E3,1.3361399E3],"tree_param":{"num_deleted":"0","num_feature":"10","num_nodes":"31","size_leaf_vector":"1"}},{"base_weights":[-7.054345E-4,1.512335E-3,-5.6929357E-2,-4.393217E-3,1.7715145E-2,-7.694686E-2,-1.6466232E-2,-1.1393388E-2,5.524073E-3,4.7927056E-2,1.0509258E-2,-5.734595E-2,-1.4898585E-1,4.8871197E-2,-7.182889E-2,-9.557136E-4,1.1175154E-4,-5.1798346E-4,7.2169927E-4,3.324192E-3,1.0557589E-3,2.1750673E-4,2.417093E-3,-3.1895477E-3,8.812219E-3,-1.0256334E-2,-5.595785E-3,5.8949944E-3,-4.8482683E-3,-5.740398E-3,8.838473E-5],"categories":[],"categories_nodes":[],"categories_segments":[],"categories_sizes":[],"default_left":[0,0,0,0,0,0,0,0,0,0,0,0,0,0,0,0,0,0,0,0,0,0,0,0,0,0,0,0,0,0,0],"id":17,"left_children":[1,3,5,7,9,11,13,15,17,19,21,23,25,27,29,-1,-1,-1,-1,-1,-1,-1,-1,-1,-1,-1,-1,-1,-1,-1,-1],"loss_changes":[1.4035408E1,1.036205E1,3.4572659E0,5.5098853E0,6.2964306E0,4.0173683E0,5.1301413E0,4.8957014E0,4.648109E0,2.7685585E0,5.442487E0,3.4088278E0,1.2233324E0,6.5745945E0,2.4280388E0,0E0,0E0,0E0,0E0,0E0,0E0,0E0,0E0,0E0,0E0,0E0,0E0,0E0,0E0,0E0,0E0],"parents":[2147483647,0,0,1,1,2,2,3,3,4,4,5,5,6,6,7,7,8,8,9,9,10,10,11,11,12,12,13,13,14,14],"right_children":[2,4,6,8,10,12,14,16,18,20,22,24,26,28,30,-1,-1,-1,-1,-1,-1,-1,-1,-1,-1,-1,-1,-1,-1,-1,-1],"split_conditions":[3.0670926E-1,5.6666665E0,4.8E0,5.1666665E0,1.9796215E-1,4.2E0,7.878788E-2,1.38E1,4.6E0,6.712329E-1,5.6E0,7.2E0,4.5E0,5.1666665E0,5.1666665E0,-9.557136E-4,1.1175154E-4,-5.1798346E-4,7.2169927E-4,3.324192E-3,1.0557589E-3,2.1750673E-4,2.417093E-3,-3.1895477E-3,8.812219E-3,-1.0256334E-2,-5.595785E-3,5.8949944E-3,-4.8482683E-3,-5.740398E-3,8.838473E-5],"split_indices":[1,6,3,4,1,3,9,7,5,9,5,6,3,6,6,0,0,0,0,0,0,0,0,0,0,0,0,0,0,0,0],"split_type":[0,0,0,0,0,0,0,0,0,0,0,0,0,0,0,0,0,0,0,0,0,0,0,0,0,0,0,0,0,0,0],"sum_hessian":[1.1255751E5,1.0828801E5,4.269507E3,7.936334E4,2.892466E4,2.8552053E3,1.4143011E3,4.6523906E4,3.2839438E4,5.5681094E3,2.335655E4,2.2473276E3,6.0787775E2,6.488185E2,7.6548267E2,2.9698219E4,1.682569E4,1.1801148E4,2.103829E4,3.2888804E3,2.2792288E3,2.00884E4,3.2681494E3,2.1884011E3,5.892652E1,2.381479E2,3.6972986E2,4.4063586E2,2.0818265E2,4.8255777E2,2.829249E2],"tree_param":{"num_deleted":"0","num_feature":"10","num_nodes":"31","size_leaf_vector":"1"}},{"base_weights":[4.14062E-4,3.0149482E-3,-3.9314687E-2,-3.1492955E-3,1.9732015E-2,-1.0211107E-1,-3.1557124E-2,-8.8241E-3,1.2076707E-2,2.2604452E-3,3.069825E-2,-3.6645506E-2,-1.7169511E-1,-1.8532434E-2,-7.453496E-2,4.97201E-3,-4.754893E-4,-9.877477E-4,1.2448973E-3,-1.310068E-3,7.3787273E-4,2.3682958E-2,1.5074252E-3,3.890988E-3,-3.1859817E-3,-9.409766E-3,5.886344E-3,2.2742662E-3,-1.3817734E-3,-4.899734E-4,-4.8378506E-3],"categories":[],"categories_nodes":[],"categories_segments":[],"categories_sizes":[],"default_left":[0,0,0,0,0,0,0,0,0,0,0,0,0,0,0,0,0,0,0,0,0,0,0,0,0,0,0,0,0,0,0],"id":18,"left_children":[1,3,5,7,9,11,13,15,17,19,21,23,25,27,29,-1,-1,-1,-1,-1,-1,-1,-1,-1,-1,-1,-1,-1,-1,-1,-1],"loss_changes":[1.168402E1,1.0936292E1,3.3781195E0,6.6998434E0,5.477811E0,3.4632645E0,3.4603887E0,4.1951947E0,8.593267E0,3.9230962E0,4.2489033E0,1.2361763E0,1.8080759E0,2.7708993E0,2.0670357E0,0E0,0E0,0E0,0E0,0E0,0E0,0E0,0E0,0E0,0E0,0E0,0E0,0E0,0E0,0E0,0E0],"parents":[2147483647,0,0,1,1,2,2,3,3,4,4,5,5,6,6,7,7,8,8,9,9,10,10,11,11,12,12,13,13,14,14],"right_children":[2,4,6,8,10,12,14,16,18,20,22,24,26,28,30,-1,-1,-1,-1,-1,-1,-1,-1,-1,-1,-1,-1,-1,-1,-1,-1],"split_conditions":[3.02799E-1,5.6666665E0,2.631579E-1,1.3833333E1,4.5E0,2.3647209E-1,3.1681588E-1,1.19068936E-1,1.14E1,2.4974687E-1,6.3333335E0,9E0,6.1666665E0,3.3333333E0,3.1764427E-1,4.97201E-3,-4.754893E-4,-9.877477E-4,1.2448973E-3,-1.310068E-3,7.3787273E-4,2.3682958E-2,1.5074252E-3,3.890988E-3,-3.1859817E-3,-9.409766E-3,5.886344E-3,2.2742662E-3,-1.3817734E-3,-4.899734E-4,-4.8378506E-3],"split_indices":[1,6,2,7,3,2,1,1,8,1,7,7,3,5,0,0,0,0,0,0,0,0,0,0,0,0,0,0,0,0,0],"split_type":[0,0,0,0,0,0,0,0,0,0,0,0,0,0,0,0,0,0,0,0,0,0,0,0,0,0,0,0,0,0,0],"sum_hessian":[1.1307057E5,1.06124836E5,6.945731E3,7.753591E4,2.8588934E4,7.610237E2,6.1847075E3,5.6484645E4,2.105126E4,1.1025443E4,1.7563488E4,3.9368912E2,3.6733456E2,4.7485063E3,1.4362009E3,3.5367804E2,5.613097E4,6.0441616E3,1.5007099E4,3.3633215E3,7.662122E3,1.9636992E1,1.7543852E4,7.458911E1,3.1910004E2,3.481838E2,1.9150763E1,5.901612E2,4.158345E3,3.6775845E2,1.0684425E3],"tree_param":{"num_deleted":"0","num_feature":"10","num_nodes":"31","size_leaf_vector":"1"}},{"base_weights":[1.0390036E-3,2.7329372E-3,-6.188118E-2,-3.519081E-2,4.995252E-3,-8.641355E-2,-2.2268198E-4,-3.189641E-2,-2.4933693E-1,-2.437015E-3,1.5455897E-2,3.702162E-2,-9.340224E-2,-1.1826869E-2,2.0517586E-2,-1.3759163E-2,-1.4755031E-3,-1.5167728E-2,-7.7800206E-3,-6.0504914E-4,4.8739632E-4,3.2232807E-3,6.669144E-4,5.036524E-3,-1.4462139E-3,-9.934341E-3,-4.1817985E-3,6.8772025E-3,-1.6364387E-3],"categories":[],"categories_nodes":[],"categories_segments":[],"categories_sizes":[],"default_left":[0,0,0,0,0,0,0,0,0,0,0,0,0,0,0,0,0,0,0,0,0,0,0,0,0,0,0,0,0],"id":19,"left_children":[1,3,5,7,9,11,13,15,17,19,21,23,25,27,-1,-1,-1,-1,-1,-1,-1,-1,-1,-1,-1,-1,-1,-1,-1],"loss_changes":[1.197102E1,9.383896E0,4.4539194E0,4.328037E0,8.024717E0,1.8240223E0,4.0122538E0,3.5057187E0,3.764763E-1,7.106062E0,4.4478397E0,4.8605508E-1,2.0171852E0,2.5658789E0,0E0,0E0,0E0,0E0,0E0,0E0,0E0,0E0,0E0,0E0,0E0,0E0,0E0,0E0,0E0],"parents":[2147483647,0,0,1,1,2,2,3,3,4,4,5,5,6,6,7,7,8,8,9,9,10,10,11,11,12,12,13,13],"right_children":[2,4,6,8,10,12,14,16,18,20,22,24,26,28,-1,-1,-1,-1,-1,-1,-1,-1,-1,-1,-1,-1,-1,-1,-1],"split_conditions":[3.1428573E-1,2.8333333E0,5.25E0,3.057915E-1,5.1666665E0,2.6E0,7E0,2E0,3.0811772E-1,5.2E0,1.7298736E-1,4.2E0,7.151371E-3,1.12E1,2.0517586E-2,-1.3759163E-2,-1.4755031E-3,-1.5167728E-2,-7.7800206E-3,-6.0504914E-4,4.8739632E-4,3.2232807E-3,6.669144E-4,5.036524E-3,-1.4462139E-3,-9.934341E-3,-4.1817985E-3,6.8772025E-3,-1.6364387E-3],"split_indices":[1,6,5,1,4,3,4,3,1,3,1,4,9,8,0,0,0,0,0,0,0,0,0,0,0,0,0,0,0],"split_type":[0,0,0,0,0,0,0,0,0,0,0,0,0,0,0,0,0,0,0,0,0,0,0,0,0,0,0,0,0],"sum_hessian":[1.1231164E5,1.0936912E5,2.942516E3,6.1554062E3,1.0321372E5,2.1044182E3,8.380979E2,6.06441E3,9.0996254E1,6.0342223E4,4.2871492E4,1.12303566E2,1.9921145E3,8.1695056E2,2.1147331E1,5.6685875E1,6.007724E3,5.4891426E1,3.6104828E1,3.365233E4,2.6689896E4,1.7732278E3,4.1098266E4,5.6584038E1,5.5719524E1,1.6581949E2,1.826295E3,9.8915016E1,7.180355E2],"tree_param":{"num_deleted":"0","num_feature":"10","num_nodes":"29","size_leaf_vector":"1"}},{"base_weights":[1.5161302E-3,-2.4377815E-3,3.517414E-2,-6.0183735E-4,-5.5422597E-2,-9.41256E-2,3.7569012E-2,-7.8031626E-3,8.316938E-3,-7.6051734E-2,1.2688049E-2,-2.5489945E-2,-1.743864E-1,1.7117253E-2,5.570485E-2,-2.9088517E-3,-3.2640278E-4,-4.450407E-3,4.6229508E-4,-7.630595E-3,-3.216451E-3,-6.28135E-3,2.4896616E-3,-8.49931E-3,3.067476E-4,-1.102661E-2,5.8698136E-4,7.004919E-4,9.199463E-3,6.356731E-3,2.4292392E-3],"categories":[],"categories_nodes":[],"categories_segments":[],"categories_sizes":[],"default_left":[0,0,0,0,0,0,0,0,0,0,0,0,0,0,0,0,0,0,0,0,0,0,0,0,0,0,0,0,0,0,0],"id":20,"left_children":[1,3,5,7,9,11,13,15,17,19,21,23,25,27,29,-1,-1,-1,-1,-1,-1,-1,-1,-1,-1,-1,-1,-1,-1,-1,-1],"loss_changes":[1.5007717E1,9.8168745E0,3.6780415E0,6.264802E0,4.7506123E0,1.1818477E0,4.3157864E0,3.4656394E0,3.9413052E0,2.3087387E0,4.0535216E0,5.452259E-1,8.580272E-1,2.833321E0,3.1250286E0,0E0,0E0,0E0,0E0,0E0,0E0,0E0,0E0,0E0,0E0,0E0,0E0,0E0,0E0,0E0,0E0],"parents":[2147483647,0,0,1,1,2,2,3,3,4,4,5,5,6,6,7,7,8,8,9,9,10,10,11,11,12,12,13,13,14,14],"right_children":[2,4,6,8,10,12,14,16,18,20,22,24,26,28,30,-1,-1,-1,-1,-1,-1,-1,-1,-1,-1,-1,-1,-1,-1,-1,-1],"split_conditions":[5.919463E-1,3.0811772E-1,2.6E0,5.1666665E0,5.4E0,2.3333333E0,4E0,7.3333335E0,1.2470024E-1,2.631579E-1,3.6E0,9.561871E-2,1.2727273E-1,7.5E0,5.994109E-1,-2.9088517E-3,-3.2640278E-4,-4.450407E-3,4.6229508E-4,-7.630595E-3,-3.216451E-3,-6.28135E-3,2.4896616E-3,-8.49931E-3,3.067476E-4,-1.102661E-2,5.8698136E-4,7.004919E-4,9.199463E-3,6.356731E-3,2.4292392E-3],"split_indices":[9,1,3,4,5,3,4,8,0,2,4,2,0,5,9,0,0,0,0,0,0,0,0,0,0,0,0,0,0,0,0],"split_type":[0,0,0,0,0,0,0,0,0,0,0,0,0,0,0,0,0,0,0,0,0,0,0,0,0,0,0,0,0,0,0],"sum_hessian":[1.12768195E5,1.0091523E5,1.1852973E4,9.753753E4,3.3776902E3,2.1415375E2,1.1638818E4,5.3964773E4,4.357276E4,2.5923071E3,7.85383E2,1.1685741E2,9.729634E1,5.4719717E3,6.1668467E3,1.3300762E3,5.2634695E4,4.1017514E2,4.3162586E4,3.4102997E2,2.251277E3,1.6511629E2,6.202667E2,1.9412096E1,9.744531E1,7.7670074E1,1.9626268E1,5.3740664E3,9.790555E1,5.559318E2,5.610915E3],"tree_param":{"num_deleted":"0","num_feature":"10","num_nodes":"31","size_leaf_vector":"1"}},{"base_weights":[2.0567968E-3,4.067277E-3,-6.345469E-2,-4.3638868E-4,2.1383703E-2,-8.217889E-2,5.3806294E-4,-6.6163894E-3,8.377391E-3,1.7889787E-2,1.0166197E-1,-6.4140566E-2,-1.3554288E-1,9.206347E-2,-8.1678085E-2,-9.529448E-4,1.0597537E-4,3.887952E-4,1.3420807E-2,4.5579407E-4,2.1866157E-3,1.3724497E-3,9.786538E-3,-3.5931207E-3,4.293788E-3,-1.5191318E-3,-7.678324E-3,-5.000593E-3,6.4343037E-3,1.6219778E-2,-5.2477187E-3],"categories":[],"categories_nodes":[],"categories_segments":[],"categories_sizes":[],"default_left":[0,0,0,0,0,0,0,0,0,0,0,0,0,0,0,0,0,0,0,0,0,0,0,0,0,0,0,0,0,0,0],"id":21,"left_children":[1,3,5,7,9,11,13,15,17,19,21,23,25,27,29,-1,-1,-1,-1,-1,-1,-1,-1,-1,-1,-1,-1,-1,-1,-1,-1],"loss_changes":[1.4583754E1,8.378034E0,3.950488E0,4.643969E0,6.2156057E0,2.4378338E0,5.645834E0,5.4476695E0,5.4922566E0,4.817602E0,6.442295E0,2.2249575E0,1.2085629E0,2.5231879E0,3.803976E0,0E0,0E0,0E0,0E0,0E0,0E0,0E0,0E0,0E0,0E0,0E0,0E0,0E0,0E0,0E0,0E0],"parents":[2147483647,0,0,1,1,2,2,3,3,4,4,5,5,6,6,7,7,8,8,9,9,10,10,11,11,12,12,13,13,14,14],"right_children":[2,4,6,8,10,12,14,16,18,20,22,24,26,28,30,-1,-1,-1,-1,-1,-1,-1,-1,-1,-1,-1,-1,-1,-1,-1,-1],"split_conditions":[3.0811772E-1,6E0,5.4E0,5.1666665E0,1.5E1,5.75E0,1.3166667E1,4.75E0,2.25E1,5.8E0,5.4E0,5.6666665E0,2.6E0,3.6E0,5.75E0,-9.529448E-4,1.0597537E-4,3.887952E-4,1.3420807E-2,4.5579407E-4,2.1866157E-3,1.3724497E-3,9.786538E-3,-3.5931207E-3,4.293788E-3,-1.5191318E-3,-7.678324E-3,-5.000593E-3,6.4343037E-3,1.6219778E-2,-5.2477187E-3],"split_indices":[1,6,5,4,8,4,8,3,8,4,3,4,3,4,5,0,0,0,0,0,0,0,0,0,0,0,0,0,0,0,0],"split_type":[0,0,0,0,0,0,0,0,0,0,0,0,0,0,0,0,0,0,0,0,0,0,0,0,0,0,0,0,0,0,0],"sum_hessian":[1.10720695E5,1.0742578E5,3.2949114E3,8.525465E4,2.2171129E4,2.5486199E3,7.462915E2,5.0115453E4,3.51392E4,2.1248773E4,9.223555E2,1.9080549E3,6.405649E2,3.5303885E2,3.9325266E2,2.067119E4,2.9444264E4,3.506016E4,7.9036674E1,1.5865064E4,5.3837085E3,5.17037E2,4.0531854E2,1.8156398E3,9.241519E1,9.45099E1,5.46055E2,5.5979607E1,2.9705923E2,1.9916676E1,3.73336E2],"tree_param":{"num_deleted":"0","num_feature":"10","num_nodes":"31","size_leaf_vector":"1"}},{"base_weights":[8.2527386E-4,3.2811332E-3,-3.8813226E-2,-1.7356741E-3,1.9434555E-2,-4.0048223E-2,1.6792377E-2,-8.048686E-3,6.833396E-3,1.6184773E-2,1.1915505E-1,-4.5013875E-2,4.8208613E-2,-3.0571176E-4,-1.8259445E-3,-1.9075324E-4,8.752228E-4,6.567698E-4,3.3181438E-3,-3.1229707E-3,7.604318E-3,-2.5236032E-3,1.0132109E-3,-1.0138983E-3,1.3447046E-2],"categories":[],"categories_nodes":[],"categories_segments":[],"categories_sizes":[],"default_left":[0,0,0,0,0,0,0,0,0,0,0,0,0,0,0,0,0,0,0,0,0,0,0,0,0],"id":22,"left_children":[1,3,5,7,9,11,-1,13,15,17,19,21,23,-1,-1,-1,-1,-1,-1,-1,-1,-1,-1,-1,-1],"loss_changes":[1.0869217E1,8.5204735E0,3.041027E0,4.340087E0,8.070568E0,2.850583E0,0E0,2.543712E0,3.8673482E0,3.6906905E0,4.720112E0,2.193161E0,5.2551794E0,0E0,0E0,0E0,0E0,0E0,0E0,0E0,0E0,0E0,0E0,0E0,0E0],"parents":[2147483647,0,0,1,1,2,2,3,3,4,4,5,5,7,7,8,8,9,9,10,10,11,11,12,12],"right_children":[2,4,6,8,10,12,-1,14,16,18,20,22,24,-1,-1,-1,-1,-1,-1,-1,-1,-1,-1,-1,-1],"split_conditions":[3.02799E-1,5.75E0,1.875E1,1.2666667E1,1.5833333E1,6.6666665E0,1.6792377E-2,1.25E1,1.2833333E1,1.75E1,4.6E0,5.75E0,1.24E1,-3.0571176E-4,-1.8259445E-3,-1.9075324E-4,8.752228E-4,6.567698E-4,3.3181438E-3,-3.1229707E-3,7.604318E-3,-2.5236032E-3,1.0132109E-3,-1.0138983E-3,1.3447046E-2],"split_indices":[1,6,8,7,8,5,0,7,8,7,5,3,7,0,0,0,0,0,0,0,0,0,0,0,0],"split_type":[0,0,0,0,0,0,0,0,0,0,0,0,0,0,0,0,0,0,0,0,0,0,0,0,0],"sum_hessian":[1.1165022E5,1.0513808E5,6.512144E3,8.022438E4,2.4913695E4,6.492529E3,1.9615162E1,4.6193094E4,3.403129E4,2.4129662E4,7.8403455E2,6.1476216E3,3.4490765E2,4.3256402E4,2.9366914E3,1.7034324E4,1.6996965E4,2.2749664E4,1.3799979E3,1.2006868E2,6.639659E2,5.673674E3,4.739474E2,2.6462024E2,8.0287415E1],"tree_param":{"num_deleted":"0","num_feature":"10","num_nodes":"25","size_leaf_vector":"1"}},{"base_weights":[6.1881973E-4,2.2692187E-3,-5.511306E-2,-1.2091207E-4,2.7719181E-2,-7.288681E-2,1.44017115E-2,-6.761571E-3,6.4833974E-3,2.1373242E-2,1.1326533E-1,9.197567E-3,-8.585911E-2,8.123702E-2,-5.4984026E-2,-3.6376214E-4,7.577285E-3,-7.133287E-7,1.0886494E-3,1.2262464E-3,-1.0048383E-2,1.0932221E-2,4.605887E-3,2.1644887E-3,-5.7765627E-3,-5.4503935E-3,-1.573997E-3,4.8598726E-3,-8.2804505E-3,5.9713474E-3,-4.7646863E-3],"categories":[],"categories_nodes":[],"categories_segments":[],"categories_sizes":[],"default_left":[0,0,0,0,0,0,0,0,0,0,0,0,0,0,0,0,0,0,0,0,0,0,0,0,0,0,0,0,0,0,0],"id":23,"left_children":[1,3,5,7,9,11,13,15,17,19,21,23,25,27,29,-1,-1,-1,-1,-1,-1,-1,-1,-1,-1,-1,-1,-1,-1,-1,-1],"loss_changes":[1.0300908E1,6.6162987E0,3.9818E0,4.360922E0,5.0645223E0,2.733365E0,3.0582094E0,4.0340385E0,4.9528294E0,6.103328E0,1.395793E0,1.506449E0,2.7821236E0,1.3548982E0,2.2992647E0,0E0,0E0,0E0,0E0,0E0,0E0,0E0,0E0,0E0,0E0,0E0,0E0,0E0,0E0,0E0,0E0],"parents":[2147483647,0,0,1,1,2,2,3,3,4,4,5,5,6,6,7,7,8,8,9,9,10,10,11,11,12,12,13,13,14,14],"right_children":[2,4,6,8,10,12,14,16,18,20,22,24,26,28,30,-1,-1,-1,-1,-1,-1,-1,-1,-1,-1,-1,-1,-1,-1,-1,-1],"split_conditions":[3.1428573E-1,6.8333335E0,5.4E0,1.24E1,1.75E1,3.1666667E0,1.3166667E1,2.15E1,1.3666667E1,1.7E1,9.6E0,5.75E0,5E0,1.3666667E1,5.75E0,-3.6376214E-4,7.577285E-3,-7.133287E-7,1.0886494E-3,1.2262464E-3,-1.0048383E-2,1.0932221E-2,4.605887E-3,2.1644887E-3,-5.7765627E-3,-5.4503935E-3,-1.573997E-3,4.8598726E-3,-8.2804505E-3,5.9713474E-3,-4.7646863E-3],"split_indices":[1,6,5,8,7,3,8,7,7,7,8,6,3,7,5,0,0,0,0,0,0,0,0,0,0,0,0,0,0,0,0],"split_type":[0,0,0,0,0,0,0,0,0,0,0,0,0,0,0,0,0,0,0,0,0,0,0,0,0,0,0,0,0,0,0],"sum_hessian":[1.119862E5,1.0876718E5,3.2190251E3,9.94311E4,9.336072E3,2.5634875E3,6.555376E2,4.957909E4,4.9852016E4,8.693664E3,6.4240894E2,3.499162E2,2.2135715E3,3.3373154E2,3.218061E2,4.9420637E4,1.5845085E2,3.4985934E4,1.4866082E4,8.573908E3,1.1975584E2,1.0425002E2,5.381589E2,2.758294E2,7.408677E1,1.5512205E3,6.6235095E2,3.1460263E2,1.9128918E1,5.9676003E1,2.6213007E2],"tree_param":{"num_deleted":"0","num_feature":"10","num_nodes":"31","size_leaf_vector":"1"}},{"base_weights":[-9.0762373E-4,-1.0865412E-2,7.3622097E-3,-1.3952476E-2,2.5558874E-2,3.4856037E-3,2.8951114E-2,-3.77822E-2,-8.478329E-3,1.7058443E-2,1.3003483E-1,2.899698E-3,1.5524547E-1,2.7315976E-2,3.6100915E-1,-2.0923172E-3,4.3722205E-3,2.7173373E-3,-6.1524654E-4,1.5895018E-2,7.615046E-4,4.8259045E-3,2.6888842E-2,-2.0855921E-4,6.49439E-4,1.1883668E-2,3.4818351E-3,9.6841174E-4,4.5363316E-3,1.1838886E-2,2.312181E-2],"categories":[],"categories_nodes":[],"categories_segments":[],"categories_sizes":[],"default_left":[0,0,0,0,0,0,0,0,0,0,0,0,0,0,0,0,0,0,0,0,0,0,0,0,0,0,0,0,0,0,0],"id":24,"left_children":[1,3,5,7,9,11,13,15,17,19,21,23,25,27,29,-1,-1,-1,-1,-1,-1,-1,-1,-1,-1,-1,-1,-1,-1,-1,-1],"loss_changes":[9.221464E0,5.7134337E0,5.1196375E0,6.109105E0,3.5214217E0,4.610745E0,5.036531E0,4.459935E0,9.158425E0,2.0110376E0,3.974393E0,3.6859808E0,1.3741713E0,4.6677513E0,3.5392857E-1,0E0,0E0,0E0,0E0,0E0,0E0,0E0,0E0,0E0,0E0,0E0,0E0,0E0,0E0,0E0,0E0],"parents":[2147483647,0,0,1,1,2,2,3,3,4,4,5,5,6,6,7,7,8,8,9,9,10,10,11,11,12,12,13,13,14,14],"right_children":[2,4,6,8,10,12,14,16,18,20,22,24,26,28,30,-1,-1,-1,-1,-1,-1,-1,-1,-1,-1,-1,-1,-1,-1,-1,-1],"split_conditions":[4.6E0,7E0,6.8333335E0,1.075E1,1.8166666E1,8E0,1.6833334E1,8E0,1.2027492E-1,4.3333335E0,7.56447E-1,1.2666667E1,5.25E0,3.8725293E-1,8.625337E-2,-2.0923172E-3,4.3722205E-3,2.7173373E-3,-6.1524654E-4,1.5895018E-2,7.615046E-4,4.8259045E-3,2.6888842E-2,-2.0855921E-4,6.49439E-4,1.1883668E-2,3.4818351E-3,9.6841174E-4,4.5363316E-3,1.1838886E-2,2.312181E-2],"split_indices":[6,4,6,8,8,5,8,3,2,8,2,7,4,2,2,0,0,0,0,0,0,0,0,0,0,0,0,0,0,0,0],"split_type":[0,0,0,0,0,0,0,0,0,0,0,0,0,0,0,0,0,0,0,0,0,0,0,0,0,0,0,0,0,0,0],"sum_hessian":[1.11976E5,5.0802992E4,6.117301E4,4.6834836E4,3.9681548E3,5.1862633E4,9.310377E3,8.746837E3,3.8088E4,3.6717393E3,2.9641553E2,5.1665207E4,1.974278E2,9.266909E3,4.346808E1,8.473178E3,2.7365924E2,2.1851902E3,3.590281E4,2.0091452E1,3.651648E3,2.761862E2,2.0229324E1,3.0376889E4,2.1288316E4,9.877263E1,9.8655174E1,8.237102E3,1.0298081E3,2.253515E1,2.0932928E1],"tree_param":{"num_deleted":"0","num_feature":"10","num_nodes":"31","size_leaf_vector":"1"}},{"base_weights":[-4.2187833E-4,2.3330755E-3,-3.7656687E-2,-7.2220434E-4,2.5397303E-2,-5.358439E-2,-1.4113418E-2,-4.5534214E-3,1.2502879E-2,1.7660394E-2,7.3412865E-2,-5.8512896E-2,1.093268E-1,-3.1527042E-2,5.906888E-2,6.759099E-4,-3.6728109E-4,3.6265227E-4,4.921437E-3,-5.2993004E-3,9.889194E-4,1.8740579E-3,8.197892E-3,-3.2044358E-3,2.1346796E-3,-1.3280181E-3,6.6167847E-3,4.8325155E-3,-1.9967915E-3,5.4873745E-3,-5.858842E-3],"categories":[],"categories_nodes":[],"categories_segments":[],"categories_sizes":[],"default_left":[0,0,0,0,0,0,0,0,0,0,0,0,0,0,0,0,0,0,0,0,0,0,0,0,0,0,0,0,0,0,0],"id":25,"left_children":[1,3,5,7,9,11,13,15,17,19,21,23,25,27,29,-1,-1,-1,-1,-1,-1,-1,-1,-1,-1,-1,-1,-1,-1,-1,-1],"loss_changes":[1.1446711E1,7.321682E0,2.8812065E0,4.6488724E0,4.5123906E0,3.6938267E0,3.9604242E0,3.5899794E0,9.295392E0,2.7460182E0,5.472865E0,2.5173864E0,4.3012905E-1,2.7123342E0,5.3623586E0,0E0,0E0,0E0,0E0,0E0,0E0,0E0,0E0,0E0,0E0,0E0,0E0,0E0,0E0,0E0,0E0],"parents":[2147483647,0,0,1,1,2,2,3,3,4,4,5,5,6,6,7,7,8,8,9,9,10,10,11,11,12,12,13,13,14,14],"right_children":[2,4,6,8,10,12,14,16,18,20,22,24,26,28,30,-1,-1,-1,-1,-1,-1,-1,-1,-1,-1,-1,-1,-1,-1,-1,-1],"split_conditions":[2.986125E-1,5.919463E-1,3.398058E-1,5.8333335E0,6.6E0,1.5166667E1,5.2E0,7.1321696E-2,1.5E1,2.6E0,1.7298736E-1,7.2E0,3E0,3.4645978E-1,1.34E1,6.759099E-4,-3.6728109E-4,3.6265227E-4,4.921437E-3,-5.2993004E-3,9.889194E-4,1.8740579E-3,8.197892E-3,-3.2044358E-3,2.1346796E-3,-1.3280181E-3,6.6167847E-3,4.8325155E-3,-1.9967915E-3,5.4873745E-3,-5.858842E-3],"split_indices":[1,9,2,6,6,8,3,9,8,3,1,6,6,2,7,0,0,0,0,0,0,0,0,0,0,0,0,0,0,0,0],"split_type":[0,0,0,0,0,0,0,0,0,0,0,0,0,0,0,0,0,0,0,0,0,0,0,0,0,0,0,0,0,0,0],"sum_hessian":[1.1158421E5,1.0389875E5,7.6854556E3,9.17471E4,1.2151649E4,4.5826255E3,3.10283E3,7.113972E4,2.0607383E4,1.046769E4,1.6839584E3,4.4493037E3,1.333219E2,2.5073484E3,5.954817E2,9.519584E3,6.1620137E4,1.942287E4,1.1845151E3,1.7463416E2,1.0293057E4,1.2075746E3,4.7638385E2,4.217671E3,2.3163268E2,1.9260939E1,1.1406096E2,1.5307022E2,2.3542783E3,4.630799E2,1.3240178E2],"tree_param":{"num_deleted":"0","num_feature":"10","num_nodes":"31","size_leaf_vector":"1"}},{"base_weights":[-5.144903E-4,2.2205112E-3,-4.2594686E-2,1.5840573E-3,8.1610635E-2,-1.3596785E-1,-3.5861373E-2,-1.8481264E-2,3.908602E-3,-2.4306552E-2,1.4623253E-1,8.577794E-3,-1.833153E-1,-4.0421665E-2,1.0706053E-1,-1.0951837E-3,4.797762E-3,-9.718014E-5,6.5988174E-4,9.646887E-3,-2.8521903E-3,6.224898E-3,1.52263865E-2,-4.4529713E-3,9.51915E-3,-9.857778E-3,-3.31938E-3,-2.117158E-3,1.2873711E-2,-9.294075E-5,1.2701173E-2],"categories":[],"categories_nodes":[],"categories_segments":[],"categories_sizes":[],"default_left":[0,0,0,0,0,0,0,0,0,0,0,0,0,0,0,0,0,0,0,0,0,0,0,0,0,0,0,0,0,0,0],"id":26,"left_children":[1,3,5,7,9,11,13,15,17,19,21,23,25,27,29,-1,-1,-1,-1,-1,-1,-1,-1,-1,-1,-1,-1,-1,-1,-1,-1],"loss_changes":[1.2847994E1,5.2962203E0,4.273592E0,4.8505564E0,5.7128496E0,3.1344166E0,4.15217E0,4.232752E0,5.0663056E0,2.2807386E0,1.7064133E0,2.071736E0,5.316992E-1,3.5491095E0,3.1563318E0,0E0,0E0,0E0,0E0,0E0,0E0,0E0,0E0,0E0,0E0,0E0,0E0,0E0,0E0,0E0,0E0],"parents":[2147483647,0,0,1,1,2,2,3,3,4,4,5,5,6,6,7,7,8,8,9,9,10,10,11,11,12,12,13,13,14,14],"right_children":[2,4,6,8,10,12,14,16,18,20,22,24,26,28,30,-1,-1,-1,-1,-1,-1,-1,-1,-1,-1,-1,-1,-1,-1,-1,-1],"split_conditions":[3.02799E-1,8.8E0,3.1666667E0,9.166667E0,2.1052632E-1,9.4E0,6.8E0,6.150207E-1,5.1666665E0,1.0809951E-2,2.631579E-1,2.6E0,6.1666665E0,8.166667E0,4.2E0,-1.0951837E-3,4.797762E-3,-9.718014E-5,6.5988174E-4,9.646887E-3,-2.8521903E-3,6.224898E-3,1.52263865E-2,-4.4529713E-3,9.51915E-3,-9.857778E-3,-3.31938E-3,-2.117158E-3,1.2873711E-2,-9.294075E-5,1.2701173E-2],"split_indices":[1,4,4,7,9,8,5,0,4,9,1,4,3,4,3,0,0,0,0,0,0,0,0,0,0,0,0,0,0,0,0],"split_type":[0,0,0,0,0,0,0,0,0,0,0,0,0,0,0,0,0,0,0,0,0,0,0,0,0,0,0,0,0,0,0],"sum_hessian":[1.1163125E5,1.0482034E5,6.8109014E3,1.0398873E5,8.3161566E2,4.5552966E2,6.3553716E3,1.07948E4,9.319393E4,3.1559457E2,5.1602106E2,1.1280089E2,3.4272876E2,6.1602476E3,1.9512416E2,1.0482908E4,3.1189105E2,5.717473E4,3.6019203E4,4.0048157E1,2.7554645E2,4.568647E2,5.915638E1,7.405203E1,3.8748856E1,3.0522794E2,3.750084E1,6.122472E3,3.77756E1,1.1320138E2,8.1922775E1],"tree_param":{"num_deleted":"0","num_feature":"10","num_nodes":"31","size_leaf_vector":"1"}},{"base_weights":[3.8949584E-4,1.9035046E-3,-4.918282E-2,1.9265925E-4,4.4616666E-2,-2.3522627E-2,-9.988872E-2,-6.5568946E-3,9.645502E-3,1.268545E-1,2.722152E-2,-4.4025395E-2,7.5063646E-2,-1.5277064E-1,-5.9531618E-2,5.902978E-4,-5.7044846E-4,-9.1561116E-5,8.933856E-4,2.687677E-3,9.522922E-3,-2.2417034E-3,2.0517567E-3,-2.6576268E-3,1.0967141E-2,-1.1474647E-2,5.386754E-3,-2.6649667E-3,-9.405126E-3,-4.49646E-3,1.2713474E-3],"categories":[],"categories_nodes":[],"categories_segments":[],"categories_sizes":[],"default_left":[0,0,0,0,0,0,0,0,0,0,0,0,0,0,0,0,0,0,0,0,0,0,0,0,0,0,0,0,0,0,0],"id":27,"left_children":[1,3,5,7,9,11,13,15,17,19,21,23,25,27,29,-1,-1,-1,-1,-1,-1,-1,-1,-1,-1,-1,-1,-1,-1,-1,-1],"loss_changes":[8.382981E0,7.92018E0,4.3022823E0,6.6490803E0,5.9642057E0,4.454541E0,2.3542824E0,5.417472E0,4.09669E0,3.3653326E0,3.4354641E0,4.4053183E0,3.8265002E0,1.666523E0,1.6413157E0,0E0,0E0,0E0,0E0,0E0,0E0,0E0,0E0,0E0,0E0,0E0,0E0,0E0,0E0,0E0,0E0],"parents":[2147483647,0,0,1,1,2,2,3,3,4,4,5,5,6,6,7,7,8,8,9,9,10,10,11,11,12,12,13,13,14,14],"right_children":[2,4,6,8,10,12,14,16,18,20,22,24,26,28,30,-1,-1,-1,-1,-1,-1,-1,-1,-1,-1,-1,-1,-1,-1,-1,-1],"split_conditions":[3.0811772E-1,7.5E0,1.0526316E-1,5.1666665E0,7.6E0,5.25E0,4.2E0,1.4403293E-1,4.6E0,5.1666665E0,1.0857928E-1,7.1666665E0,3.4E0,3.4E0,5E0,5.902978E-4,-5.7044846E-4,-9.1561116E-5,8.933856E-4,2.687677E-3,9.522922E-3,-2.2417034E-3,2.0517567E-3,-2.6576268E-3,1.0967141E-2,-1.1474647E-2,5.386754E-3,-2.6649667E-3,-9.405126E-3,-4.49646E-3,1.2713474E-3],"split_indices":[1,6,9,4,6,3,4,2,5,3,9,6,4,6,3,0,0,0,0,0,0,0,0,0,0,0,0,0,0,0,0],"split_type":[0,0,0,0,0,0,0,0,0,0,0,0,0,0,0,0,0,0,0,0,0,0,0,0,0,0,0,0,0,0,0],"sum_hessian":[1.1168977E5,1.0838157E5,3.3082034E3,1.0420954E5,4.17203E3,2.1985398E3,1.1096637E3,6.0798547E4,4.3410992E4,7.26207E2,3.445823E3,1.8209481E3,3.7759167E2,4.778899E2,6.317738E2,1.2706703E4,4.8091844E4,1.8120121E4,2.5290871E4,3.3959534E2,3.866116E2,5.5360046E2,2.8922227E3,1.7614989E3,5.9449146E1,3.5414665E1,3.42177E2,1.2656977E2,3.5132013E2,4.652085E2,1.6656535E2],"tree_param":{"num_deleted":"0","num_feature":"10","num_nodes":"31","size_leaf_vector":"1"}},{"base_weights":[-8.7335234E-4,5.7610037E-4,-5.5755302E-2,-2.7494691E-2,2.6903334E-3,-7.538118E-2,1.644072E-2,-3.3022415E-2,8.7628536E-2,-2.924763E-3,1.0699686E-2,-1.2376398E-1,-5.09637E-2,-5.34929E-3,1.5112588E-2,-1.911819E-3,4.161693E-3,2.2055844E-2,3.218439E-3,-7.6787444E-3,-1.21133766E-4,3.027635E-4,2.2204365E-3,-1.0844285E-2,-4.954753E-3,-3.7528884E-3,9.2974876E-4,4.0815156E-3,-4.3066586E-3],"categories":[],"categories_nodes":[],"categories_segments":[],"categories_sizes":[],"default_left":[0,0,0,0,0,0,0,0,0,0,0,0,0,0,0,0,0,0,0,0,0,0,0,0,0,0,0,0,0],"id":28,"left_children":[1,3,5,7,9,11,13,15,17,19,21,23,25,27,-1,-1,-1,-1,-1,-1,-1,-1,-1,-1,-1,-1,-1,-1,-1],"loss_changes":[8.913582E0,6.4791765E0,4.0876904E0,4.871912E0,4.5659785E0,2.6659355E0,3.8513389E0,4.429978E0,2.8282251E0,4.5137825E0,6.550249E0,1.7007332E0,2.5338721E0,4.0619445E0,0E0,0E0,0E0,0E0,0E0,0E0,0E0,0E0,0E0,0E0,0E0,0E0,0E0,0E0,0E0],"parents":[2147483647,0,0,1,1,2,2,3,3,4,4,5,5,6,6,7,7,8,8,9,9,10,10,11,11,12,12,13,13],"right_children":[2,4,6,8,10,12,14,16,18,20,22,24,26,28,-1,-1,-1,-1,-1,-1,-1,-1,-1,-1,-1,-1,-1,-1,-1],"split_conditions":[3.1428573E-1,3E0,5.4E0,7.4E0,1.26E1,2.961083E-1,5.75E0,2.0833334E1,4.1666665E0,1.1895781E-1,6E0,3.8725293E-1,5E0,1.3166667E1,1.5112588E-2,-1.911819E-3,4.161693E-3,2.2055844E-2,3.218439E-3,-7.6787444E-3,-1.21133766E-4,3.027635E-4,2.2204365E-3,-1.0844285E-2,-4.954753E-3,-3.7528884E-3,9.2974876E-4,4.0815156E-3,-4.3066586E-3],"split_indices":[1,6,5,3,8,2,6,8,5,0,6,0,3,8,0,0,0,0,0,0,0,0,0,0,0,0,0,0,0],"split_type":[0,0,0,0,0,0,0,0,0,0,0,0,0,0,0,0,0,0,0,0,0,0,0,0,0,0,0,0,0],"sum_hessian":[1.1204895E5,1.09167766E5,2.8811824E3,7.6446963E3,1.0152307E5,2.2652932E3,6.158891E2,7.295809E3,3.4888724E2,5.9682727E4,4.1840348E4,7.570585E2,1.5082347E3,5.74084E2,4.180514E1,6.9839297E3,3.118792E2,1.9321451E1,3.295658E2,1.9622481E2,5.9486504E4,3.6775758E4,5.064587E3,1.5528723E2,6.0177124E2,1.1200933E3,3.8814145E2,2.7643106E2,2.976529E2],"tree_param":{"num_deleted":"0","num_feature":"10","num_nodes":"29","size_leaf_vector":"1"}},{"base_weights":[7.1638427E-4,-9.931058E-3,9.4562275E-3,-3.7066597E-3,-3.2031424E-2,6.794443E-3,4.2068545E-2,-6.2278095E-3,6.0963016E-2,-2.0296164E-2,-6.391706E-2,-1.0560547E-2,1.1131402E-2,8.9625E-2,9.250469E-3,-2.476368E-3,-1.6775641E-4,7.980266E-3,1.3939461E-3,-2.0641424E-3,4.5343503E-4,-4.3318286E-3,1.3423063E-3,-1.5851131E-3,2.1983944E-4,4.6713804E-4,3.7723102E-3,1.7199947E-2,3.605521E-3,1.0520629E-2,8.5984706E-5],"categories":[],"categories_nodes":[],"categories_segments":[],"categories_sizes":[],"default_left":[0,0,0,0,0,0,0,0,0,0,0,0,0,0,0,0,0,0,0,0,0,0,0,0,0,0,0,0,0,0,0],"id":29,"left_children":[1,3,5,7,9,11,13,15,17,19,21,23,25,27,29,-1,-1,-1,-1,-1,-1,-1,-1,-1,-1,-1,-1,-1,-1,-1,-1],"loss_changes":[1.0405766E1,6.9341674E0,5.3304124E0,6.4138875E0,4.142373E0,4.273959E0,7.2303076E0,4.7089295E0,4.8083153E0,4.992611E0,6.1479855E0,3.590467E0,5.2245493E0,8.378837E0,4.1561193E0,0E0,0E0,0E0,0E0,0E0,0E0,0E0,0E0,0E0,0E0,0E0,0E0,0E0,0E0,0E0,0E0],"parents":[2147483647,0,0,1,1,2,2,3,3,4,4,5,5,6,6,7,7,8,8,9,9,10,10,11,11,12,12,13,13,14,14],"right_children":[2,4,6,8,10,12,14,16,18,20,22,24,26,28,30,-1,-1,-1,-1,-1,-1,-1,-1,-1,-1,-1,-1,-1,-1,-1,-1],"split_conditions":[4.6E0,2.804889E-1,6.25E0,2.7966103E-1,1.6233766E-1,1.0526316E-1,2.3890252E-1,3.4E0,2.797443E-1,4.6E0,1.44E1,4.2E0,1.5833333E1,1.5789473E-1,3E0,-2.476368E-3,-1.6775641E-4,7.980266E-3,1.3939461E-3,-2.0641424E-3,4.5343503E-4,-4.3318286E-3,1.3423063E-3,-1.5851131E-3,2.1983944E-4,4.6713804E-4,3.7723102E-3,1.7199947E-2,3.605521E-3,1.0520629E-2,8.5984706E-5],"split_indices":[6,1,5,1,9,9,1,5,1,3,8,5,8,9,3,0,0,0,0,0,0,0,0,0,0,0,0,0,0,0,0],"split_type":[0,0,0,0,0,0,0,0,0,0,0,0,0,0,0,0,0,0,0,0,0,0,0,0,0,0,0,0,0,0,0],"sum_hessian":[1.1181744E5,5.0407496E4,6.1409945E4,3.9332215E4,1.107528E4,5.6778184E4,4.631761E3,3.785812E4,1.474093E3,8.098108E3,2.9771724E3,1.1351317E4,4.5426867E4,1.8898009E3,2.7419602E3,2.3533843E3,3.550474E4,3.6830884E2,1.1057842E3,4.7223174E3,3.3757905E3,2.3812083E3,5.9596405E2,4.7023945E3,6.648923E3,4.4199926E4,1.2269414E3,1.1933606E2,1.7704648E3,9.700054E1,2.6449597E3],"tree_param":{"num_deleted":"0","num_feature":"10","num_nodes":"31","size_leaf_vector":"1"}},{"base_weights":[-3.6504795E-4,-3.7418841E-3,2.4158608E-2,-2.206744E-3,-4.6847824E-2,2.6414966E-2,-1.0225324E-1,-8.559536E-3,5.816744E-3,-1.7568739E-1,-3.9828606E-2,1.949323E-2,6.81333E-2,-1.678683E-1,-8.815563E-3,-1.7379391E-3,-3.0261348E-4,-8.220484E-5,7.826392E-4,-1.4816512E-3,-9.56715E-3,-2.6331334E-3,2.814342E-3,-1.4539708E-4,1.4319674E-3,2.6224048E-3,1.1433663E-2,-2.8306055E-3,-1.2421223E-2,-8.686218E-3,1.780944E-3],"categories":[],"categories_nodes":[],"categories_segments":[],"categories_sizes":[],"default_left":[0,0,0,0,0,0,0,0,0,0,0,0,0,0,0,0,0,0,0,0,0,0,0,0,0,0,0,0,0,0,0],"id":30,"left_children":[1,3,5,7,9,11,13,15,17,19,21,23,25,27,29,-1,-1,-1,-1,-1,-1,-1,-1,-1,-1,-1,-1,-1,-1,-1,-1],"loss_changes":[9.284232E0,6.520706E0,3.8757005E0,4.8503385E0,3.0505233E0,3.847332E0,1.4584091E0,3.4881527E0,3.0858932E0,3.876419E-1,3.9732013E0,2.3436618E0,4.7516108E0,1.2258627E0,7.483867E-1,0E0,0E0,0E0,0E0,0E0,0E0,0E0,0E0,0E0,0E0,0E0,0E0,0E0,0E0,0E0,0E0],"parents":[2147483647,0,0,1,1,2,2,3,3,4,4,5,5,6,6,7,7,8,8,9,9,10,10,11,11,12,12,13,13,14,14],"right_children":[2,4,6,8,10,12,14,16,18,20,22,24,26,28,30,-1,-1,-1,-1,-1,-1,-1,-1,-1,-1,-1,-1,-1,-1,-1,-1],"split_conditions":[5.755895E-1,3.0811772E-1,2.0053716E-1,5.1666665E0,3.1666667E0,6.6E0,1.2666667E1,9.2E0,1.26E1,4E0,1.2666667E1,3.4E0,6E0,8.4E0,2.0573108E-1,-1.7379391E-3,-3.0261348E-4,-8.220484E-5,7.826392E-4,-1.4816512E-3,-9.56715E-3,-2.6331334E-3,2.814342E-3,-1.4539708E-4,1.4319674E-3,2.6224048E-3,1.1433663E-2,-2.8306055E-3,-1.2421223E-2,-8.686218E-3,1.780944E-3],"split_indices":[9,1,1,4,4,6,7,7,8,3,7,4,4,8,1,0,0,0,0,0,0,0,0,0,0,0,0,0,0,0,0],"split_type":[0,0,0,0,0,0,0,0,0,0,0,0,0,0,0,0,0,0,0,0,0,0,0,0,0,0,0,0,0,0,0],"sum_hessian":[1.12107484E5,9.8540445E4,1.3567037E4,9.515381E4,3.3866287E3,1.3330677E4,2.3636047E2,5.310584E4,4.2047977E4,1.7248906E2,3.2141394E3,1.1436169E4,1.8945078E3,1.3791724E2,9.844324E1,4.636091E3,4.846975E4,2.391194E4,1.8136037E4,1.7259295E1,1.5522977E2,2.8363171E3,3.7782233E2,3.3159429E3,8.120226E3,1.7283013E3,1.6620645E2,5.9351856E1,7.856538E1,1.9660011E1,7.8783226E1],"tree_param":{"num_deleted":"0","num_feature":"10","num_nodes":"31","size_leaf_vector":"1"}},{"base_weights":[-1.0303796E-3,5.186769E-4,-5.2221734E-2,-7.067149E-3,6.766538E-3,-2.8936146E-2,-8.727045E-2,-3.1247852E-2,-3.9125835E-3,-7.575848E-2,8.112076E-3,9.867584E-4,-1.0838359E-1,-1.3888362E-1,-5.255087E-2,-7.6220706E-3,-1.2595952E-3,3.5133788E-3,-2.6800047E-4,-6.204901E-3,-6.113132E-4,7.83803E-5,8.3256076E-4,-3.6313122E-3,1.951026E-3,-6.6316472E-3,4.722964E-3,-1.0204981E-2,-4.4842004E-3,1.6583076E-3,-4.4351756E-3],"categories":[],"categories_nodes":[],"categories_segments":[],"categories_sizes":[],"default_left":[0,0,0,0,0,0,0,0,0,0,0,0,0,0,0,0,0,0,0,0,0,0,0,0,0,0,0,0,0,0,0],"id":31,"left_children":[1,3,5,7,9,11,13,15,17,19,21,23,25,27,29,-1,-1,-1,-1,-1,-1,-1,-1,-1,-1,-1,-1,-1,-1,-1,-1],"loss_changes":[8.913123E0,5.1709056E0,2.6892653E0,3.7584324E0,6.6444426E0,4.7227583E0,2.3451252E0,4.165648E0,4.681107E0,2.9452353E0,3.2897868E0,4.0513573E0,2.6984997E0,1.6586685E0,2.4554482E0,0E0,0E0,0E0,0E0,0E0,0E0,0E0,0E0,0E0,0E0,0E0,0E0,0E0,0E0,0E0,0E0],"parents":[2147483647,0,0,1,1,2,2,3,3,4,4,5,5,6,6,7,7,8,8,9,9,10,10,11,11,12,12,13,13,14,14],"right_children":[2,4,6,8,10,12,14,16,18,20,22,24,26,28,30,-1,-1,-1,-1,-1,-1,-1,-1,-1,-1,-1,-1,-1,-1,-1,-1],"split_conditions":[3.0811772E-1,4.6E0,9.247813E-2,3.3333333E0,6.8333335E0,5.75E0,4.2E0,2.8056113E-2,1.3565217E-1,3.918452E-1,1.2666667E1,2.617801E-2,1.24E1,1.1E1,5E0,-7.6220706E-3,-1.2595952E-3,3.5133788E-3,-2.6800047E-4,-6.204901E-3,-6.113132E-4,7.83803E-5,8.3256076E-4,-3.6313122E-3,1.951026E-3,-6.6316472E-3,4.722964E-3,-1.0204981E-2,-4.4842004E-3,1.6583076E-3,-4.4351756E-3],"split_indices":[1,6,9,4,8,4,4,9,1,9,7,9,7,8,4,0,0,0,0,0,0,0,0,0,0,0,0,0,0,0,0],"split_type":[0,0,0,0,0,0,0,0,0,0,0,0,0,0,0,0,0,0,0,0,0,0,0,0,0,0,0,0,0,0,0],"sum_hessian":[1.12397234E5,1.0909791E5,3.2993354E3,4.9272973E4,5.982493E4,1.9845175E3,1.3148181E3,5.6841816E3,4.3588793E4,9.5799866E2,5.886693E4,1.4430032E3,5.415143E2,5.263542E2,7.884639E2,2.6821597E2,5.415966E3,8.324197E2,4.275637E4,5.4296674E2,4.1503192E2,3.3327113E4,2.5539818E4,4.9095602E2,9.520471E2,4.8430865E2,5.7205635E1,2.2362874E2,3.0272543E2,2.3394684E2,5.545171E2],"tree_param":{"num_deleted":"0","num_feature":"10","num_nodes":"31","size_leaf_vector":"1"}},{"base_weights":[1.35944E-3,2.8962707E-3,-4.943206E-2,4.406719E-4,2.8783843E-2,-9.1185205E-2,-3.252957E-2,-4.155696E-2,1.835136E-3,-3.956948E-3,4.268269E-2,6.8048455E-2,-1.1506229E-1,-5.433676E-2,3.6926247E-2,1.1550636E-3,-2.9007676E-3,-1.03936996E-4,6.194526E-4,-4.065663E-4,2.5506571E-2,1.8849307E-3,5.8062095E-3,6.6972794E-3,-4.7548353E-3,1.284069E-2,-6.287817E-3,-3.6996033E-3,1.3562589E-3,2.9704943E-3,-5.56478E-3],"categories":[],"categories_nodes":[],"categories_segments":[],"categories_sizes":[],"default_left":[0,0,0,0,0,0,0,0,0,0,0,0,0,0,0,0,0,0,0,0,0,0,0,0,0,0,0,0,0,0,0],"id":32,"left_children":[1,3,5,7,9,11,13,15,17,19,21,23,25,27,29,-1,-1,-1,-1,-1,-1,-1,-1,-1,-1,-1,-1,-1,-1,-1,-1],"loss_changes":[8.814757E0,6.967676E0,2.3346443E0,5.863218E0,4.3216558E0,3.6450682E0,3.5844998E0,3.4265065E0,4.0025945E0,6.085198E0,2.4314127E0,1.3772072E0,3.3688126E0,2.8859053E0,1.8996172E0,0E0,0E0,0E0,0E0,0E0,0E0,0E0,0E0,0E0,0E0,0E0,0E0,0E0,0E0,0E0,0E0],"parents":[2147483647,0,0,1,1,2,2,3,3,4,4,5,5,6,6,7,7,8,8,9,9,10,10,11,11,12,12,13,13,14,14],"right_children":[2,4,6,8,10,12,14,16,18,20,22,24,26,28,30,-1,-1,-1,-1,-1,-1,-1,-1,-1,-1,-1,-1,-1,-1,-1,-1],"split_conditions":[3.0811772E-1,6.8333335E0,2.961083E-1,2.5E0,1.075E1,2.3647209E-1,5E0,4.1666665E0,1.3833333E1,7.4674493E-1,4.111855E-1,5.1666665E0,8E0,3.6585367E-1,1.375E1,1.1550636E-3,-2.9007676E-3,-1.03936996E-4,6.194526E-4,-4.065663E-4,2.5506571E-2,1.8849307E-3,5.8062095E-3,6.6972794E-3,-4.7548353E-3,1.284069E-2,-6.287817E-3,-3.6996033E-3,1.3562589E-3,2.9704943E-3,-5.56478E-3],"split_indices":[1,6,2,6,7,2,3,3,7,0,2,3,7,0,7,0,0,0,0,0,0,0,0,0,0,0,0,0,0,0,0],"split_type":[0,0,0,0,0,0,0,0,0,0,0,0,0,0,0,0,0,0,0,0,0,0,0,0,0,0,0,0,0,0,0],"sum_hessian":[1.1292016E5,1.0960564E5,3.3145212E3,1.0011147E5,9.494167E3,9.525957E2,2.3619255E3,3.2153672E3,9.68961E4,2.8297356E3,6.6644316E3,1.2373314E2,8.2886255E2,1.7978776E3,5.640481E2,6.522274E2,2.56314E3,7.068462E4,2.6211488E4,2.8088958E3,2.0839764E1,6.2437305E3,4.2070142E2,8.838918E1,3.5343956E1,2.1882654E1,8.069799E2,1.4485514E3,3.4932614E2,4.9079776E2,7.325031E1],"tree_param":{"num_deleted":"0","num_feature":"10","num_nodes":"31","size_leaf_vector":"1"}},{"base_weights":[-2.5789568E-4,1.5262892E-3,-5.63426E-2,-6.5345643E-3,9.082545E-3,-3.4810968E-2,-1.0012801E-1,-1.4915155E-2,6.1344034E-3,8.517016E-3,2.0114596E-1,-5.549107E-2,1.6812224E-2,-1.5608548E-1,-5.858531E-2,-1.8625954E-3,-4.6797693E-4,-9.020154E-3,3.419885E-4,3.088617E-4,1.9997247E-3,1.114432E-2,2.0985645E-3,-3.2886162E-3,2.5162937E-3,-6.353559E-4,6.4424323E-3,-8.81737E-3,-4.7278437E-3,-6.691299E-3,-3.935159E-4],"categories":[],"categories_nodes":[],"categories_segments":[],"categories_sizes":[],"default_left":[0,0,0,0,0,0,0,0,0,0,0,0,0,0,0,0,0,0,0,0,0,0,0,0,0,0,0,0,0,0,0],"id":33,"left_children":[1,3,5,7,9,11,13,15,17,19,21,23,25,27,29,-1,-1,-1,-1,-1,-1,-1,-1,-1,-1,-1,-1,-1,-1,-1,-1],"loss_changes":[1.1235192E1,6.628146E0,3.25663E0,5.5903935E0,6.097321E0,2.482512E0,2.6319723E0,3.9318233E0,2.7608457E0,4.1242604E0,5.5161905E-1,1.8120346E0,2.206351E0,5.707474E-1,2.506874E0,0E0,0E0,0E0,0E0,0E0,0E0,0E0,0E0,0E0,0E0,0E0,0E0,0E0,0E0,0E0,0E0],"parents":[2147483647,0,0,1,1,2,2,3,3,4,4,5,5,6,6,7,7,8,8,9,9,10,10,11,11,12,12,13,13,14,14],"right_children":[2,4,6,8,10,12,14,16,18,20,22,24,26,28,30,-1,-1,-1,-1,-1,-1,-1,-1,-1,-1,-1,-1,-1,-1,-1,-1],"split_conditions":[3.0811772E-1,4.75E0,1.0526316E-1,1.3833333E1,1.9166666E1,3.533569E-1,4.2E0,2.6973686E-1,6.6666665E0,5.919463E-1,5.2E0,3.8725293E-1,1.24E1,1.724138E-1,4.1666665E0,-1.8625954E-3,-4.6797693E-4,-9.020154E-3,3.419885E-4,3.088617E-4,1.9997247E-3,1.114432E-2,2.0985645E-3,-3.2886162E-3,2.5162937E-3,-6.353559E-4,6.4424323E-3,-8.81737E-3,-4.7278437E-3,-6.691299E-3,-3.935159E-4],"split_indices":[1,4,9,7,7,2,4,0,8,9,4,0,7,9,5,0,0,0,0,0,0,0,0,0,0,0,0,0,0,0,0],"split_type":[0,0,0,0,0,0,0,0,0,0,0,0,0,0,0,0,0,0,0,0,0,0,0,0,0,0,0,0,0,0,0],"sum_hessian":[1.1227469E5,1.0881498E5,3.4597117E3,5.264968E4,5.6165293E4,2.321631E3,1.1380804E3,3.1687725E4,2.0961955E4,5.6002484E4,1.6281012E2,1.6574939E3,6.641372E2,4.825617E2,6.5551874E2,6.309305E3,2.5378418E4,7.704673E1,2.0884908E4,5.2129957E4,3.8725276E3,1.4254102E2,2.02691E1,1.511402E3,1.4609201E2,5.270447E2,1.370925E2,3.6020938E2,1.2235233E2,2.6261945E2,3.9289926E2],"tree_param":{"num_deleted":"0","num_feature":"10","num_nodes":"31","size_leaf_vector":"1"}},{"base_weights":[4.7145956E-4,3.826256E-3,-2.243097E-2,-4.8191042E-4,2.0144721E-2,-2.5254635E-2,1.1500173E-1,-2.3272652E-2,2.7805052E-3,1.716076E-2,1.16165124E-1,-8.778575E-2,-2.1358548E-2,3.4097302E-1,5.3269073E-2,-3.294882E-3,-7.327913E-4,-2.973509E-4,5.403163E-4,-4.005673E-3,9.913237E-4,-3.3099048E-3,8.034834E-3,-3.280046E-3,-8.123899E-3,-3.0773543E-3,-7.1671663E-4,2.0752234E-2,8.636161E-3,4.9718497E-3,-4.3149753E-3],"categories":[],"categories_nodes":[],"categories_segments":[],"categories_sizes":[],"default_left":[0,0,0,0,0,0,0,0,0,0,0,0,0,0,0,0,0,0,0,0,0,0,0,0,0,0,0,0,0,0,0],"id":34,"left_children":[1,3,5,7,9,11,13,15,17,19,21,23,25,27,29,-1,-1,-1,-1,-1,-1,-1,-1,-1,-1,-1,-1,-1,-1,-1,-1],"loss_changes":[8.682543E0,6.929532E0,5.6088037E0,5.7982945E0,5.894665E0,3.4433908E0,4.023555E0,3.5847487E0,4.7785306E0,5.181239E0,5.0574093E0,1.3527627E0,3.758957E0,6.302633E-1,1.5053602E0,0E0,0E0,0E0,0E0,0E0,0E0,0E0,0E0,0E0,0E0,0E0,0E0,0E0,0E0,0E0,0E0],"parents":[2147483647,0,0,1,1,2,2,3,3,4,4,5,5,6,6,7,7,8,8,9,9,10,10,11,11,12,12,13,13,14,14],"right_children":[2,4,6,8,10,12,14,16,18,20,22,24,26,28,30,-1,-1,-1,-1,-1,-1,-1,-1,-1,-1,-1,-1,-1,-1,-1,-1],"split_conditions":[2.916584E-1,6E0,7.6666665E0,9.4E0,1.5833333E1,3E0,1.959132E-2,9.6E0,4.6666665E0,6.8333335E0,4.6E0,1.5254237E-1,3.8333333E0,2.9555646E-1,4.2E0,-3.294882E-3,-7.327913E-4,-2.973509E-4,5.403163E-4,-4.005673E-3,9.913237E-4,-3.3099048E-3,8.034834E-3,-3.280046E-3,-8.123899E-3,-3.0773543E-3,-7.1671663E-4,2.0752234E-2,8.636161E-3,4.9718497E-3,-4.3149753E-3],"split_indices":[1,6,5,7,8,6,9,8,4,8,5,9,4,1,6,0,0,0,0,0,0,0,0,0,0,0,0,0,0,0,0],"split_type":[0,0,0,0,0,0,0,0,0,0,0,0,0,0,0,0,0,0,0,0,0,0,0,0,0,0,0,0,0,0,0],"sum_hessian":[1.1300118E5,9.856486E4,1.4436323E4,7.797972E4,2.058514E4,1.4147288E4,2.890349E2,9.763201E3,6.8216516E4,1.9966996E4,6.181435E2,8.272406E2,1.3320048E4,6.0077076E1,2.2895784E2,1.639545E3,8.1236562E3,3.2679904E4,3.5536613E4,5.310329E2,1.9435965E4,1.2112907E2,4.9701443E2,6.4069885E2,1.8654172E2,1.9794196E3,1.1340628E4,3.9676086E1,2.0400988E1,1.7247867E2,5.6479168E1],"tree_param":{"num_deleted":"0","num_feature":"10","num_nodes":"31","size_leaf_vector":"1"}},{"base_weights":[-9.904538E-4,4.117984E-4,-4.7528926E-2,-3.5456583E-4,6.701266E-2,-8.030768E-2,-2.264055E-2,-1.03885885E-2,6.026335E-3,5.43482E-2,1.5183747E-2,-9.555193E-2,3.3521794E-3,6.8109356E-2,-4.5415696E-2,-2.181357E-3,-3.972128E-4,2.4480312E-4,4.7088074E-3,2.2556486E-3,1.4848641E-2,-3.4951249E-3,-7.7135274E-3,-2.6409035E-3,2.8322146E-3,-5.7427253E-4,5.954859E-3,-6.197974E-3,-1.2795398E-3],"categories":[],"categories_nodes":[],"categories_segments":[],"categories_sizes":[],"default_left":[0,0,0,0,0,0,0,0,0,0,0,0,0,0,0,0,0,0,0,0,0,0,0,0,0,0,0,0,0],"id":35,"left_children":[1,3,5,7,9,11,13,15,17,19,-1,21,23,25,27,-1,-1,-1,-1,-1,-1,-1,-1,-1,-1,-1,-1,-1,-1],"loss_changes":[7.318409E0,5.556616E0,2.6723814E0,6.891213E0,3.6789026E0,1.8051128E0,3.8655844E0,3.398563E0,6.5541887E0,2.6127172E0,0E0,1.7810678E0,6.6458E-1,1.5262947E0,2.31981E0,0E0,0E0,0E0,0E0,0E0,0E0,0E0,0E0,0E0,0E0,0E0,0E0,0E0,0E0],"parents":[2147483647,0,0,1,1,2,2,3,3,4,4,5,5,6,6,7,7,8,8,9,9,11,11,12,12,13,13,14,14],"right_children":[2,4,6,8,10,12,14,16,18,20,-1,22,24,26,28,-1,-1,-1,-1,-1,-1,-1,-1,-1,-1,-1,-1,-1,-1],"split_conditions":[3.0811772E-1,2.0333334E1,4.5E0,4.5E0,2.8400308E-1,5.2E0,1.12E1,2.5E0,7.5E0,8.4E0,1.5183747E-2,4.1666665E0,2.9408938E-1,5E0,3.6E0,-2.181357E-3,-3.972128E-4,2.4480312E-4,4.7088074E-3,2.2556486E-3,1.4848641E-2,-3.4951249E-3,-7.7135274E-3,-2.6409035E-3,2.8322146E-3,-5.7427253E-4,5.954859E-3,-6.197974E-3,-1.2795398E-3],"split_indices":[1,8,5,6,1,3,8,6,5,4,0,3,2,6,4,0,0,0,0,0,0,0,0,0,0,0,0,0,0],"split_type":[0,0,0,0,0,0,0,0,0,0,0,0,0,0,0,0,0,0,0,0,0,0,0,0,0,0,0,0,0],"sum_hessian":[1.12142016E5,1.0886382E5,3.2781968E3,1.0762736E5,1.2364594E3,1.4129048E3,1.865292E3,4.183702E4,6.5790336E4,1.1759883E3,6.047114E1,1.1948909E3,2.1801385E2,3.7341205E2,1.4918799E3,2.8635918E3,3.897343E4,6.4959527E4,8.3081195E2,1.1351519E3,4.08364E1,8.3467114E2,3.602198E2,1.0614943E2,1.11864426E2,1.4640898E2,2.2700307E2,2.985513E2,1.1933286E3],"tree_param":{"num_deleted":"0","num_feature":"10","num_nodes":"29","size_leaf_vector":"1"}},{"base_weights":[-1.0344406E-3,-5.810493E-3,1.1956933E-2,-1.7273216E-2,5.6476064E-4,-7.168353E-3,2.2741497E-2,-6.628247E-2,-1.544361E-2,-1.2945877E-1,1.242639E-3,-2.664297E-2,1.9312665E-2,4.9999505E-2,1.3900687E-2,3.202226E-3,-4.2413194E-3,-1.2371162E-3,-1.7253197E-4,5.7493127E-3,-8.556632E-3,-3.472459E-3,1.0655572E-4,-1.2375488E-3,-1.5284173E-2,4.7427925E-4,5.2521224E-3,2.0310389E-2,2.3424528E-3,6.040285E-4,6.5623047E-3],"categories":[],"categories_nodes":[],"categories_segments":[],"categories_sizes":[],"default_left":[0,0,0,0,0,0,0,0,0,0,0,0,0,0,0,0,0,0,0,0,0,0,0,0,0,0,0,0,0,0,0],"id":36,"left_children":[1,3,5,7,9,11,13,15,17,19,21,23,25,27,29,-1,-1,-1,-1,-1,-1,-1,-1,-1,-1,-1,-1,-1,-1,-1,-1],"loss_changes":[6.9340944E0,5.9714684E0,6.1964674E0,2.6166363E0,4.6286745E0,5.5878377E0,4.6277637E0,2.5494595E0,3.1397567E0,2.813951E0,3.2814415E0,3.2809792E0,3.8666284E0,5.2405567E0,3.0954235E0,0E0,0E0,0E0,0E0,0E0,0E0,0E0,0E0,0E0,0E0,0E0,0E0,0E0,0E0,0E0,0E0],"parents":[2147483647,0,0,1,1,2,2,3,3,4,4,5,5,6,6,7,7,8,8,9,9,10,10,11,11,12,12,13,13,14,14],"right_children":[2,4,6,8,10,12,14,16,18,20,22,24,26,28,30,-1,-1,-1,-1,-1,-1,-1,-1,-1,-1,-1,-1,-1,-1,-1,-1],"split_conditions":[1.3833333E1,4.6666665E0,1.14E1,2.5E0,5.6666665E0,5.5893534E-1,1.45E1,1.1666666E0,1.24E1,3.1666667E0,2.1666667E0,8.833333E0,5.2E0,2.75E0,2.1166666E1,3.202226E-3,-4.2413194E-3,-1.2371162E-3,-1.7253197E-4,5.7493127E-3,-8.556632E-3,-3.472459E-3,1.0655572E-4,-1.2375488E-3,-1.5284173E-2,4.7427925E-4,5.2521224E-3,2.0310389E-2,2.3424528E-3,6.040285E-4,6.5623047E-3],"split_indices":[7,4,8,6,7,9,7,6,8,5,6,6,4,3,8,0,0,0,0,0,0,0,0,0,0,0,0,0,0,0,0],"split_type":[0,0,0,0,0,0,0,0,0,0,0,0,0,0,0,0,0,0,0,0,0,0,0,0,0,0,0,0,0,0,0],"sum_hessian":[1.117504E5,8.171164E4,3.0038758E4,2.9202342E4,5.2509297E4,1.0831285E4,1.9207473E4,1.0484072E3,2.8153934E4,2.7036707E2,5.223893E4,6.241305E3,4.58998E3,4.7017407E3,1.4505731E4,1.2998222E2,9.18425E2,1.5857075E4,1.2296858E4,3.8867126E1,2.3149994E2,6.4648926E2,5.159244E4,6.2014346E3,3.9870583E1,4.119939E3,4.7004135E2,3.8976357E1,4.6627646E3,1.4286345E4,2.1938615E2],"tree_param":{"num_deleted":"0","num_feature":"10","num_nodes":"31","size_leaf_vector":"1"}},{"base_weights":[-1.1257927E-3,5.2408162E-5,-4.103794E-2,-2.097991E-3,1.716849E-2,-1.6668902E-1,-3.3994157E-2,-9.778429E-3,2.86892E-3,1.3802461E-2,1.3757475E-1,-1.2016243E-3,-1.8228525E-1,-6.230495E-4,-6.9024384E-2,-1.3619034E-3,-2.7828928E-4,-1.7637349E-4,5.1579805E-4,-9.413738E-4,1.2454382E-3,1.47261815E-2,3.1210685E-3,-8.307312E-3,-1.4058341E-2,-1.7136062E-3,5.3241574E-3,-4.349201E-3,6.811214E-3],"categories":[],"categories_nodes":[],"categories_segments":[],"categories_sizes":[],"default_left":[0,0,0,0,0,0,0,0,0,0,0,0,0,0,0,0,0,0,0,0,0,0,0,0,0,0,0,0,0],"id":37,"left_children":[1,3,5,7,9,11,13,15,17,19,21,-1,23,25,27,-1,-1,-1,-1,-1,-1,-1,-1,-1,-1,-1,-1,-1,-1],"loss_changes":[5.259683E0,3.9988885E0,2.827155E0,3.6821117E0,4.9109306E0,3.6887026E-1,3.5529494E0,2.7877433E0,2.7921963E0,4.2768207E0,3.8504586E0,0E0,1.502552E-1,5.624432E0,5.4896336E0,0E0,0E0,0E0,0E0,0E0,0E0,0E0,0E0,0E0,0E0,0E0,0E0,0E0,0E0],"parents":[2147483647,0,0,1,1,2,2,3,3,4,4,5,5,6,6,7,7,8,8,9,9,10,10,12,12,13,13,14,14],"right_children":[2,4,6,8,10,12,14,16,18,20,22,-1,24,26,28,-1,-1,-1,-1,-1,-1,-1,-1,-1,-1,-1,-1,-1,-1],"split_conditions":[3.0811772E-1,6.8728524E-1,3.1666667E0,4.6666665E0,1.5833333E1,4E0,5E0,1.7221418E-1,1.26E1,3.1666667E0,1.6166666E1,-1.2016243E-3,3.9869517E-1,4.4E0,1.2666667E1,-1.3619034E-3,-2.7828928E-4,-1.7637349E-4,5.1579805E-4,-9.413738E-4,1.2454382E-3,1.47261815E-2,3.1210685E-3,-8.307312E-3,-1.4058341E-2,-1.7136062E-3,5.3241574E-3,-4.349201E-3,6.811214E-3],"split_indices":[1,0,4,4,8,3,4,2,8,4,8,0,0,4,7,0,0,0,0,0,0,0,0,0,0,0,0,0,0],"split_type":[0,0,0,0,0,0,0,0,0,0,0,0,0,0,0,0,0,0,0,0,0,0,0,0,0,0,0,0,0],"sum_hessian":[1.11847695E5,1.0864258E5,3.205116E3,9.6518164E4,1.2124418E4,1.6772963E2,3.0373865E3,3.790419E4,5.8613973E4,1.1796859E4,3.2755905E2,1.7031038E1,1.506986E2,1.5565726E3,1.4808137E3,7.3656655E3,3.0538525E4,3.1531814E4,2.7082158E4,2.9953203E3,8.801539E3,1.0417143E2,2.233876E2,1.3416179E2,1.6536804E1,1.185492E3,3.7108066E2,1.3627252E3,1.1808853E2],"tree_param":{"num_deleted":"0","num_feature":"10","num_nodes":"29","size_leaf_vector":"1"}},{"base_weights":[-1.2830815E-3,-2.8154032E-2,8.138189E-4,-3.2716077E-2,7.3347874E-2,-1.8305379E-3,2.2570845E-2,-1.3508464E-2,-3.0955886E-2,2.1251578E-2,4.999431E-2,-7.5891484E-3,6.0151066E-3,-4.564166E-3,3.7666664E-2,-2.009426E-3,1.5411609E-3,3.3532481E-3,-1.0529145E-2,-6.995573E-4,9.997447E-5,-1.6893844E-4,7.9916994E-4,-8.048347E-3,5.690183E-5,1.3615446E-3,4.850037E-3],"categories":[],"categories_nodes":[],"categories_segments":[],"categories_sizes":[],"default_left":[0,0,0,0,0,0,0,0,0,0,0,0,0,0,0,0,0,0,0,0,0,0,0,0,0,0,0],"id":38,"left_children":[1,3,5,7,9,11,13,-1,15,-1,17,19,21,23,25,-1,-1,-1,-1,-1,-1,-1,-1,-1,-1,-1,-1],"loss_changes":[6.37096E0,3.7947974E0,6.0345006E0,3.2576294E0,2.8539295E0,4.225374E0,4.656353E0,0E0,4.439328E0,0E0,1.5093586E0,3.3109305E0,3.707173E0,3.6255658E0,4.5171165E0,0E0,0E0,0E0,0E0,0E0,0E0,0E0,0E0,0E0,0E0,0E0,0E0],"parents":[2147483647,0,0,1,1,2,2,3,3,4,4,5,5,6,6,8,8,10,10,11,11,12,12,13,13,14,14],"right_children":[2,4,6,8,10,12,14,-1,16,-1,18,20,22,24,26,-1,-1,-1,-1,-1,-1,-1,-1,-1,-1,-1,-1],"split_conditions":[3E0,7.4E0,5.919463E-1,2E0,4.1666665E0,1.2666667E1,7.892977E-2,-1.3508464E-2,6.4E0,2.1251578E-2,1.0166667E1,5.25E0,4.8333335E0,6.9672865E-1,6.6E0,-2.009426E-3,1.5411609E-3,3.3532481E-3,-1.0529145E-2,-6.995573E-4,9.997447E-5,-1.6893844E-4,7.9916994E-4,-8.048347E-3,5.690183E-5,1.3615446E-3,4.850037E-3],"split_indices":[6,3,9,3,5,8,2,0,4,0,3,4,3,9,6,0,0,0,0,0,0,0,0,0,0,0,0],"split_type":[0,0,0,0,0,0,0,0,0,0,0,0,0,0,0,0,0,0,0,0,0,0,0,0,0,0,0],"sum_hessian":[1.1306633E5,8.182751E3,1.0488358E5,7.8320903E3,3.5066095E2,9.351907E4,1.136451E4,5.5386276E1,7.776704E3,1.9693583E1,3.3096738E2,5.3932973E4,3.9586098E4,4.0628523E3,7.301657E3,6.7662188E3,1.010485E3,3.1201242E2,1.8954966E1,3.2339863E4,2.1593111E4,2.038093E4,1.9205168E4,1.4099924E2,3.921853E3,6.211999E3,1.0896584E3],"tree_param":{"num_deleted":"0","num_feature":"10","num_nodes":"27","size_leaf_vector":"1"}},{"base_weights":[-4.5055E-4,1.0437737E-3,-5.830785E-2,-3.5483642E-3,1.3541067E-2,-7.735024E-2,-5.727792E-3,-1.0618632E-2,6.227899E-3,2.2649658E-1,1.2937763E-2,-5.6994874E-2,-1.4228739E-1,-4.770755E-2,9.878083E-2,-1.0283776E-3,1.249724E-4,1.1129036E-3,-4.526974E-6,2.4026847E-3,1.4086137E-2,5.877577E-4,5.5008223E-3,-3.3425794E-3,1.4222574E-2,-9.280866E-3,-4.8969556E-3,1.0975787E-2,-3.4162842E-3,8.249714E-3,-1.1459318E-3],"categories":[],"categories_nodes":[],"categories_segments":[],"categories_sizes":[],"default_left":[0,0,0,0,0,0,0,0,0,0,0,0,0,0,0,0,0,0,0,0,0,0,0,0,0,0,0,0,0,0,0],"id":39,"left_children":[1,3,5,7,9,11,13,15,17,19,21,23,25,27,29,-1,-1,-1,-1,-1,-1,-1,-1,-1,-1,-1,-1,-1,-1,-1,-1],"loss_changes":[9.707572E0,6.281641E0,2.829606E0,5.532886E0,3.772946E0,2.7268105E0,3.316396E0,6.062551E0,3.402692E0,7.9055643E-1,3.364832E0,5.366609E0,9.127531E-1,3.0002868E0,1.7534556E0,0E0,0E0,0E0,0E0,0E0,0E0,0E0,0E0,0E0,0E0,0E0,0E0,0E0,0E0,0E0,0E0],"parents":[2147483647,0,0,1,1,2,2,3,3,4,4,5,5,6,6,7,7,8,8,9,9,10,10,11,11,12,12,13,13,14,14],"right_children":[2,4,6,8,10,12,14,16,18,20,22,24,26,28,30,-1,-1,-1,-1,-1,-1,-1,-1,-1,-1,-1,-1,-1,-1,-1,-1],"split_conditions":[3.1428573E-1,5.6666665E0,5E0,5.1666665E0,1.6E0,5.75E0,3.455818E-1,1.32E1,2.3803699E-1,5.1666665E0,2.02E1,7.2E0,9.75E0,5.1666665E0,1.3166667E1,-1.0283776E-3,1.249724E-4,1.1129036E-3,-4.526974E-6,2.4026847E-3,1.4086137E-2,5.877577E-4,5.5008223E-3,-3.3425794E-3,1.4222574E-2,-9.280866E-3,-4.8969556E-3,1.0975787E-2,-3.4162842E-3,8.249714E-3,-1.1459318E-3],"split_indices":[1,6,3,4,4,4,2,7,1,3,7,6,7,3,7,0,0,0,0,0,0,0,0,0,0,0,0,0,0,0,0],"split_type":[0,0,0,0,0,0,0,0,0,0,0,0,0,0,0,0,0,0,0,0,0,0,0,0,0,0,0,0,0,0,0],"sum_hessian":[1.1227797E5,1.0945301E5,2.824961E3,8.00427E4,2.9410309E4,2.073192E3,7.5176904E2,4.6449734E4,3.359297E4,8.096871E1,2.932934E4,1.5812765E3,4.9191537E2,5.371071E2,2.1466193E2,2.6415068E4,2.0034664E4,9.496037E3,2.4096932E4,2.0020405E1,6.0948307E1,2.8978564E4,3.5077377E2,1.538473E3,4.2803486E1,2.4559198E2,2.463234E2,3.709109E1,5.00016E2,1.3856233E2,7.6099594E1],"tree_param":{"num_deleted":"0","num_feature":"10","num_nodes":"31","size_leaf_vector":"1"}},{"base_weights":[7.228549E-4,2.8454184E-3,-3.3687126E-2,-1.4797807E-3,1.958115E-2,-1.2043515E-1,-2.8752172E-2,1.6944382E-1,-1.7586923E-3,1.3295265E-2,5.455849E-2,6.680429E-2,-1.7073971E-1,-5.381873E-2,-7.069227E-3,1.022138E-2,-1.8368828E-3,-1.2389943E-3,2.9649686E-5,9.81978E-3,6.038397E-4,2.5281766E-3,1.6050091E-2,9.472793E-3,-3.509412E-3,-5.660599E-3,-1.0136392E-2,-1.1182886E-3,-4.4167177E-3,-4.8047907E-4,1.9282123E-2],"categories":[],"categories_nodes":[],"categories_segments":[],"categories_sizes":[],"default_left":[0,0,0,0,0,0,0,0,0,0,0,0,0,0,0,0,0,0,0,0,0,0,0,0,0,0,0,0,0,0,0],"id":40,"left_children":[1,3,5,7,9,11,13,15,17,19,21,23,25,27,29,-1,-1,-1,-1,-1,-1,-1,-1,-1,-1,-1,-1,-1,-1,-1,-1],"loss_changes":[8.271944E0,7.7218013E0,2.8100705E0,4.0417914E0,4.815241E0,3.3530312E0,3.3846416E0,1.0112934E0,4.5819798E0,4.1389275E0,3.5192041E0,1.3088096E0,4.6798134E-1,3.1320124E0,3.3415432E0,0E0,0E0,0E0,0E0,0E0,0E0,0E0,0E0,0E0,0E0,0E0,0E0,0E0,0E0,0E0,0E0],"parents":[2147483647,0,0,1,1,2,2,3,3,4,4,5,5,6,6,7,7,8,8,9,9,10,10,11,11,12,12,13,13,14,14],"right_children":[2,4,6,8,10,12,14,16,18,20,22,24,26,28,30,-1,-1,-1,-1,-1,-1,-1,-1,-1,-1,-1,-1,-1,-1,-1,-1],"split_conditions":[3.02799E-1,6E0,3.1666667E0,2E0,5.919463E-1,9.4E0,4.5E0,6.1049455E-1,3.5E0,2.1666667E0,1.6E1,3.0670926E-1,3.75E0,3.757675E-1,8.166667E0,1.022138E-2,-1.8368828E-3,-1.2389943E-3,2.9649686E-5,9.81978E-3,6.038397E-4,2.5281766E-3,1.6050091E-2,9.472793E-3,-3.509412E-3,-5.660599E-3,-1.0136392E-2,-1.1182886E-3,-4.4167177E-3,-4.8047907E-4,1.9282123E-2],"split_indices":[1,6,4,5,9,8,5,0,5,4,8,1,6,0,4,0,0,0,0,0,0,0,0,0,0,0,0,0,0,0,0],"split_type":[0,0,0,0,0,0,0,0,0,0,0,0,0,0,0,0,0,0,0,0,0,0,0,0,0,0,0,0,0,0,0],"sum_hessian":[1.1325171E5,1.06673445E5,6.5782666E3,8.47678E4,2.1905648E4,3.5156406E2,6.226702E3,1.3612186E2,8.463168E4,1.8570965E4,3.334685E3,7.4311615E1,2.7725244E2,2.88664E3,3.3400623E3,1.16390366E2,1.9731482E1,7.8423213E3,7.678935E4,1.2064865E2,1.8450316E4,3.287769E3,4.69161E1,3.8803925E1,3.5507694E1,1.0231913E2,1.749333E2,1.5120524E3,1.3745876E3,3.3205337E3,1.9528648E1],"tree_param":{"num_deleted":"0","num_feature":"10","num_nodes":"31","size_leaf_vector":"1"}},{"base_weights":[-1.3052591E-3,-6.666287E-3,5.686663E-3,-8.627693E-3,4.1409023E-2,2.1990496E-3,4.592695E-2,-2.0929836E-2,-1.2351781E-3,3.805895E-2,2.0850105E-2,1.6655274E-2,-4.921671E-3,6.294584E-2,-2.6871695E-3,-1.0210378E-3,-1.5145326E-2,-5.2872876E-4,7.3982816E-4,2.3100788E-3,-4.067575E-3,5.4087804E-4,3.5993413E-3,-6.968532E-4,4.0070876E-4,2.0179269E-4,4.1645993E-3,-5.3552375E-4,1.769971E-2],"categories":[],"categories_nodes":[],"categories_segments":[],"categories_sizes":[],"default_left":[0,0,0,0,0,0,0,0,0,0,0,0,0,0,0,0,0,0,0,0,0,0,0,0,0,0,0,0,0],"id":41,"left_children":[1,3,5,7,9,11,13,15,17,19,-1,21,23,25,27,-1,-1,-1,-1,-1,-1,-1,-1,-1,-1,-1,-1,-1,-1],"loss_changes":[4.2198887E0,6.0092735E0,6.856653E0,5.5679426E0,3.111598E0,4.6286297E0,3.224286E0,3.2865E0,5.7267137E0,2.4171753E0,0E0,4.791595E0,3.5136023E0,3.4588604E0,2.9046626E0,0E0,0E0,0E0,0E0,0E0,0E0,0E0,0E0,0E0,0E0,0E0,0E0,0E0,0E0],"parents":[2147483647,0,0,1,1,2,2,3,3,4,4,5,5,6,6,7,7,8,8,9,9,11,11,12,12,13,13,14,14],"right_children":[2,4,6,8,10,12,14,16,18,20,-1,22,24,26,28,-1,-1,-1,-1,-1,-1,-1,-1,-1,-1,-1,-1,-1,-1],"split_conditions":[1.2666667E1,6.2E0,6.1666665E0,4.8E0,8.2802546E-1,5.1666665E0,6.1666665E0,4.75E0,5.3333335E0,1.6333334E1,2.0850105E-2,5.755895E-1,5.1666665E0,1.6479598E-1,8.666667E0,-1.0210378E-3,-1.5145326E-2,-5.2872876E-4,7.3982816E-4,2.3100788E-3,-4.067575E-3,5.4087804E-4,3.5993413E-3,-6.968532E-4,4.0070876E-4,2.0179269E-4,4.1645993E-3,-5.3552375E-4,1.769971E-2],"split_indices":[8,5,6,6,0,5,4,6,4,7,0,9,4,2,6,0,0,0,0,0,0,0,0,0,0,0,0,0,0],"split_type":[0,0,0,0,0,0,0,0,0,0,0,0,0,0,0,0,0,0,0,0,0,0,0,0,0,0,0,0,0],"sum_hessian":[1.125747E5,6.3718723E4,4.885598E4,6.122257E4,2.496155E3,4.496131E4,3.8946738E3,2.2978906E4,3.8243664E4,2.4762708E3,1.9884247E1,1.4837032E4,3.0124275E4,2.884333E3,1.0103407E3,2.2939637E4,3.927024E1,2.4166178E4,1.4077485E4,2.3193406E3,1.5693016E2,1.3423217E4,1.4138154E3,1.7752117E4,1.2372157E4,7.4106323E2,2.1432698E3,9.9001105E2,2.0329685E1],"tree_param":{"num_deleted":"0","num_feature":"10","num_nodes":"29","size_leaf_vector":"1"}},{"base_weights":[-1.2721817E-3,9.6322346E-4,-3.1818707E-2,-8.650255E-3,7.5180666E-3,-3.281507E-2,1.5553123E-2,-1.08316345E-2,3.836489E-2,6.207014E-3,7.637482E-2,-1.23752296E-1,-2.923998E-2,-1.5449057E-3,-3.230881E-4,-7.008618E-4,5.4844012E-3,1.4815269E-4,1.3944058E-3,1.5865553E-2,2.8907997E-3,-8.956916E-3,-4.41049E-3,-2.347019E-3,-5.5735366E-4],"categories":[],"categories_nodes":[],"categories_segments":[],"categories_sizes":[],"default_left":[0,0,0,0,0,0,0,0,0,0,0,0,0,0,0,0,0,0,0,0,0,0,0,0,0],"id":42,"left_children":[1,3,5,7,9,11,-1,13,15,17,19,21,23,-1,-1,-1,-1,-1,-1,-1,-1,-1,-1,-1,-1],"loss_changes":[7.633644E0,6.5644336E0,2.6247478E0,4.3321624E0,5.590645E0,2.464529E0,0E0,3.5388627E0,7.00093E0,4.27497E0,5.1374397E0,5.333209E-1,2.3425293E0,0E0,0E0,0E0,0E0,0E0,0E0,0E0,0E0,0E0,0E0,0E0,0E0],"parents":[2147483647,0,0,1,1,2,2,3,3,4,4,5,5,7,7,8,8,9,9,10,10,11,11,12,12],"right_children":[2,4,6,8,10,12,-1,14,16,18,20,22,24,-1,-1,-1,-1,-1,-1,-1,-1,-1,-1,-1,-1],"split_conditions":[2.986125E-1,4.5E0,1.875E1,7.4E0,7.25E0,3E0,1.5553123E-2,3E0,1.06E1,6.4E0,1.1E1,1.04E1,4.6E0,-1.5449057E-3,-3.230881E-4,-7.008618E-4,5.4844012E-3,1.4815269E-4,1.3944058E-3,1.5865553E-2,2.8907997E-3,-8.956916E-3,-4.41049E-3,-2.347019E-3,-5.5735366E-4],"split_indices":[1,6,8,4,5,4,0,6,7,4,8,7,5,0,0,0,0,0,0,0,0,0,0,0,0],"split_type":[0,0,0,0,0,0,0,0,0,0,0,0,0,0,0,0,0,0,0,0,0,0,0,0,0],"sum_hessian":[1.117899E5,1.04168734E5,7.621167E3,4.2231066E4,6.1937668E4,7.6008887E3,2.0278488E1,4.0360008E4,1.8710588E3,6.078253E4,1.1551367E3,2.8497345E2,7.315915E3,7.215277E3,3.3144734E4,1.0796986E3,7.913603E2,5.287375E4,7.9087793E3,8.0311676E1,1.0748251E3,1.08233116E2,1.7674034E2,3.6964587E3,3.619456E3],"tree_param":{"num_deleted":"0","num_feature":"10","num_nodes":"25","size_leaf_vector":"1"}},{"base_weights":[7.1358116E-4,2.5173684E-3,-3.239826E-2,3.3704973E-6,1.9189527E-2,-6.0833763E-2,-6.306224E-3,-1.9797485E-1,2.5512654E-4,1.2780712E-2,5.855883E-2,-1.11504436E-1,-4.368474E-2,9.469398E-3,-7.674576E-2,-1.3055927E-2,5.33498E-3,-1.2017385E-6,7.956295E-3,9.039361E-4,-1.4674696E-3,2.5982785E-3,1.5411906E-2,-6.345372E-3,2.9163205E-3,-2.9234958E-3,7.111944E-4,-4.89937E-3,1.0803883E-3,1.727296E-3,-6.1880373E-3],"categories":[],"categories_nodes":[],"categories_segments":[],"categories_sizes":[],"default_left":[0,0,0,0,0,0,0,0,0,0,0,0,0,0,0,0,0,0,0,0,0,0,0,0,0,0,0,0,0,0,0],"id":43,"left_children":[1,3,5,7,9,11,13,15,17,19,21,23,25,27,29,-1,-1,-1,-1,-1,-1,-1,-1,-1,-1,-1,-1,-1,-1,-1,-1],"loss_changes":[6.6873355E0,4.450426E0,4.290834E0,4.5990176E0,3.5089097E0,2.3951845E0,3.3558886E0,2.3101907E0,4.0871043E0,2.6723442E0,3.1734948E0,1.8421087E0,1.7748988E0,3.2235E0,2.899836E0,0E0,0E0,0E0,0E0,0E0,0E0,0E0,0E0,0E0,0E0,0E0,0E0,0E0,0E0,0E0,0E0],"parents":[2147483647,0,0,1,1,2,2,3,3,4,4,5,5,6,6,7,7,8,8,9,9,10,10,11,11,12,12,13,13,14,14],"right_children":[2,4,6,8,10,12,14,16,18,20,22,24,26,28,30,-1,-1,-1,-1,-1,-1,-1,-1,-1,-1,-1,-1,-1,-1,-1,-1],"split_conditions":[3.05499E-1,5.755895E-1,3.1578946E-1,1.1895781E-1,6.6E0,3.0642024E-1,1.4E1,2.3717059E-1,2.35E1,1.8994413E-1,1.55E1,7E0,1.24E1,3.1666667E0,3.395829E-1,-1.3055927E-2,5.33498E-3,-1.2017385E-6,7.956295E-3,9.039361E-4,-1.4674696E-3,2.5982785E-3,1.5411906E-2,-6.345372E-3,2.9163205E-3,-2.9234958E-3,7.111944E-4,-4.89937E-3,1.0803883E-3,1.727296E-3,-6.1880373E-3],"split_indices":[1,9,2,0,6,1,8,1,8,1,8,6,8,6,2,0,0,0,0,0,0,0,0,0,0,0,0,0,0,0,0],"split_type":[0,0,0,0,0,0,0,0,0,0,0,0,0,0,0,0,0,0,0,0,0,0,0,0,0,0,0,0,0,0,0],"sum_hessian":[1.1196084E5,1.0617855E5,5.782292E3,9.2267516E4,1.3911035E4,2.7656167E3,3.016675E3,1.1518671E2,9.215233E4,1.1965806E4,1.9452299E3,6.9653687E2,2.0690798E3,2.466099E3,5.505758E2,9.564933E1,1.9537373E1,9.199268E4,1.5964612E2,1.0630166E4,1.3356395E3,1.897538E3,4.7691856E1,6.3908026E2,5.7456615E1,1.6482347E3,4.2084512E2,2.4886227E2,2.217237E3,1.6367125E2,3.8690457E2],"tree_param":{"num_deleted":"0","num_feature":"10","num_nodes":"31","size_leaf_vector":"1"}},{"base_weights":[1.5047702E-3,-8.197023E-3,7.972505E-3,-8.851306E-3,1.2479131E-1,1.0413742E-2,-4.089111E-2,-5.8000017E-2,-7.413975E-3,1.4359775E-1,-2.6567758E-3,3.1099482E-3,1.9956585E-2,-5.8987174E-2,3.3283647E-4,2.753114E-3,-4.987648E-3,-1.5118466E-3,-1.8340914E-4,7.937021E-4,8.715943E-3,1.1270305E-5,2.767463E-3,4.4265186E-4,2.3056332E-3,-5.1634405E-3,-2.2288943E-3,2.2009087E-3,-6.2204376E-3],"categories":[],"categories_nodes":[],"categories_segments":[],"categories_sizes":[],"default_left":[0,0,0,0,0,0,0,0,0,0,0,0,0,0,0,0,0,0,0,0,0,0,0,0,0,0,0,0,0],"id":44,"left_children":[1,3,5,7,9,11,13,15,17,19,-1,21,23,25,27,-1,-1,-1,-1,-1,-1,-1,-1,-1,-1,-1,-1,-1,-1],"loss_changes":[7.0600896E0,3.9181983E0,8.053797E0,3.1630034E0,7.529807E-1,4.4813747E0,2.396659E0,6.0169106E0,3.7200007E0,7.789626E-1,0E0,5.4886074E0,8.095003E0,1.415359E0,5.3624573E0,0E0,0E0,0E0,0E0,0E0,0E0,0E0,0E0,0E0,0E0,0E0,0E0,0E0,0E0],"parents":[2147483647,0,0,1,1,2,2,3,3,4,4,5,5,6,6,7,7,8,8,9,9,11,11,12,12,13,13,14,14],"right_children":[2,4,6,8,10,12,14,16,18,20,-1,22,24,26,28,-1,-1,-1,-1,-1,-1,-1,-1,-1,-1,-1,-1,-1,-1],"split_conditions":[4.5E0,2.25E1,3.05499E-1,3E0,6.1666665E0,1.2666667E1,5.1666665E0,2.25E0,2.8333333E0,2.75E0,-2.6567758E-3,7.5E0,1.3E1,4.2E0,1.4E1,2.753114E-3,-4.987648E-3,-1.5118466E-3,-1.8340914E-4,7.937021E-4,8.715943E-3,1.1270305E-5,2.767463E-3,4.4265186E-4,2.3056332E-3,-5.1634405E-3,-2.2288943E-3,2.2009087E-3,-6.2204376E-3],"split_indices":[6,8,1,5,4,7,5,5,6,6,0,6,8,4,8,0,0,0,0,0,0,0,0,0,0,0,0,0,0],"split_type":[0,0,0,0,0,0,0,0,0,0,0,0,0,0,0,0,0,0,0,0,0,0,0,0,0,0,0,0,0],"sum_hessian":[1.1250977E5,4.5003164E4,6.750661E4,4.4784695E4,2.1846722E2,6.429594E4,3.210666E3,1.270257E3,4.3514438E4,1.9793216E2,2.0535069E1,3.6422188E4,2.7873752E4,2.2306267E3,9.800394E2,3.4241043E2,9.2784656E2,6.1328843E3,3.7381555E4,3.8965538E1,1.5896661E2,3.4518176E4,1.9040107E3,1.956912E4,8.304634E3,5.446162E2,1.6860104E3,7.2680255E2,2.5323688E2],"tree_param":{"num_deleted":"0","num_feature":"10","num_nodes":"29","size_leaf_vector":"1"}},{"base_weights":[-2.7539683E-4,1.9432504E-3,-3.5919487E-2,-6.120665E-4,2.4528705E-2,-9.612548E-2,-2.812511E-2,-6.050265E-3,6.7251716E-3,1.8903911E-2,1.062797E-1,-4.828127E-2,-2.0544668E-1,2.074258E-2,-3.557588E-2,-2.0731635E-4,-1.9597397E-3,-8.895372E-4,4.841047E-4,3.0859385E-3,5.0427584E-4,1.8402807E-2,4.377934E-3,-6.5332265E-3,1.3244052E-3,-1.1942314E-2,-1.5126214E-3,4.4078697E-3,-7.6298876E-4,-4.6917736E-3,-1.2638428E-3],"categories":[],"categories_nodes":[],"categories_segments":[],"categories_sizes":[],"default_left":[0,0,0,0,0,0,0,0,0,0,0,0,0,0,0,0,0,0,0,0,0,0,0,0,0,0,0,0,0,0,0],"id":45,"left_children":[1,3,5,7,9,11,13,15,17,19,21,23,25,27,29,-1,-1,-1,-1,-1,-1,-1,-1,-1,-1,-1,-1,-1,-1,-1,-1],"loss_changes":[8.800607E0,6.0462914E0,3.0546837E0,3.755516E0,4.8924303E0,3.8852978E0,2.1046586E0,3.4108384E0,2.9047027E0,3.7612283E0,3.2927918E0,3.222012E0,1.3119049E0,1.8605295E0,3.0030808E0,0E0,0E0,0E0,0E0,0E0,0E0,0E0,0E0,0E0,0E0,0E0,0E0,0E0,0E0,0E0,0E0],"parents":[2147483647,0,0,1,1,2,2,3,3,4,4,5,5,6,6,7,7,8,8,9,9,10,10,11,11,12,12,13,13,14,14],"right_children":[2,4,6,8,10,12,14,16,18,20,22,24,26,28,30,-1,-1,-1,-1,-1,-1,-1,-1,-1,-1,-1,-1,-1,-1,-1,-1],"split_conditions":[3.02799E-1,6.6E0,2.631579E-1,1.2666667E1,1.75E1,2.489019E-1,8.2E0,1.24E1,3.4E0,1.2589262E-1,4.75E0,4.2E0,1.3E1,3.0670926E-1,9.166667E0,-2.0731635E-4,-1.9597397E-3,-8.895372E-4,4.841047E-4,3.0859385E-3,5.0427584E-4,1.8402807E-2,4.377934E-3,-6.5332265E-3,1.3244052E-3,-1.1942314E-2,-1.5126214E-3,4.4078697E-3,-7.6298876E-4,-4.6917736E-3,-1.2638428E-3],"split_indices":[1,6,2,7,7,2,7,7,5,2,3,6,7,1,7,0,0,0,0,0,0,0,0,0,0,0,0,0,0,0,0],"split_type":[0,0,0,0,0,0,0,0,0,0,0,0,0,0,0,0,0,0,0,0,0,0,0,0,0,0,0,0,0,0,0],"sum_hessian":[1.1128128E5,1.04762305E5,6.5189814E3,9.411597E4,1.0646329E4,7.446247E2,5.774357E3,5.405325E4,4.0062723E4,9.963278E3,6.8305084E2,5.1995197E2,2.2467268E2,7.634588E2,5.010898E3,5.1119043E4,2.934207E3,4.3109004E3,3.575182E4,1.6995696E3,8.263709E3,4.3097504E1,6.3995337E2,2.4666907E2,2.7328293E2,1.8808829E2,3.6584396E1,2.6477234E2,4.986865E2,7.5031116E2,4.260587E3],"tree_param":{"num_deleted":"0","num_feature":"10","num_nodes":"31","size_leaf_vector":"1"}},{"base_weights":[1.1050856E-3,3.1567246E-3,-2.6840247E-2,